tree
version=v4
num_class=1
num_tree_per_iteration=1
label_index=0
max_feature_idx=10
objective=binary sigmoid:1
feature_names=Column_0 Column_1 Column_2 Column_3 Column_4 Column_5 Column_6 Column_7 Column_8 Column_9 Column_10
feature_infos=[-0.50078644429329966:1.4709014924677548] [-0.039254179228645825:0.031179242549618902] [-0.07502503216320533:0.084603102257391649] [-0.021889199763377887:0.031176706063365867] [-0.094672650098800659:0.13519400358200073] [-1:1] [-0.07158641517162323:0.074414737522602081] [-0.04870690008881523:0.045043803109854841] [0:0.9948204321076014] [-0.14378871671292814:0.12451893310929663] [0.0068967898729324602:0.88534135750952958]
tree_sizes=3464 3444

Tree=0
num_leaves=31
num_cat=0
split_feature=9 0 3 0 9 0 6 9 8 6 9 9 7 8 7 6 6 6 8 8 6 0 7 3 8 7 9 3 7 0
split_gain=52.1921 51.2818 26.0089 22.2724 21.103 17.4363 15.4424 12.8278 12.3452 9.93878 9.61649 9.35865 9.30965 10.2883 9.0638 12.4559 10.0402 7.90684 7.05532 6.50761 6.49499 5.79575 5.45345 8.85762 4.89816 4.86557 5.29983 4.84276 4.59251 4.41368
threshold=-0.00083271061769912824 0.29206524297109399 -0.00049117696775274877 0.44293908547823119 0.012233989928286395 0.77144243244090671 0.0045721838250756272 -0.01790613357635323 0.20729385106891271 -0.015805248171091076 0.019965583107276811 -0.027202505430240494 0.00022668969787434387 0.22571087177819446 -0.0071568722827537691 -0.0076370351016521445 -0.0061911267694085828 0.0041803871281445035 0.17787663938059298 0.31039212168316338 0.0052323618438094863 0.13215270996548653 -0.00093604139208342885 0.00028450676649638412 0.28070468300598345 -0.002987055932359007 0.0066000051995899209 0.0010989601155002584 0.0004532707403190151 0.02874490680002002
decision_type=2 2 2 2 2 2 2 2 2 2 2 2 2 2 2 2 2 2 2 2 2 2 2 2 2 2 2 2 2 2
left_child=3 27 6 7 17 20 25 9 -7 24 -8 -5 14 -14 15 -9 -16 19 21 -4 -6 -11 23 -13 -1 26 -3 -2 -27 -20
right_child=1 2 4 11 5 8 10 12 -10 18 -12 22 13 -15 16 -17 -18 -19 29 -21 -22 -23 -24 -25 -26 28 -28 -29 -30 -31
leaf_value=0.032847678966734489 0.051431654232646784 0.017273099206626771 0.0090877384139342633 -0.040674627213044448 0.033192367874612938 0.018470482281303602 -0.018302605089069578 0.020243886174960736 -0.0095596770713058856 -0.013328968725703971 0.02151742212413385 -0.0085295612490544452 0.016225885865405965 -0.016918053768655385 0.04727529116836271 -0.037780231970567672 0.016031625509837312 -0.020315244247178024 -0.03312747046123185 -0.0078515699712093569 0.0047205519797982824 0.013397045213846307 -0.014725172688951861 0.0297339212098746 -0.0015297452765835693 0.019111585656061556 0.056729927747334125 0.020526598218305075 0.039738784426354506 -0.010334722901162505
leaf_weight=23.499724060297012 93.49890211224556 12.499853223562239 103.7487817555666 27.499677091836929 107.49873772263527 71.749157503247261 26.99968296289444 20.499759286642075 84.249010726809502 31.499630123376846 31.999624252319336 58.499313086271286 42.249503895640373 49.999412894248962 31.999624252319336 15.249820932745932 124.49853810667992 61.249280795454979 27.249680027365685 122.24856452643871 23.999718189239502 52.749380603432655 189.49777486920357 19.249773964285851 16.999800384044647 73.999131083488464 34.249597832560539 16.499806255102158 44.749474540352821 111.49869075417519
leaf_count=94 374 50 415 110 430 287 108 82 337 126 128 234 169 200 128 61 498 245 109 489 96 211 758 77 68 296 137 66 179 446
internal_value=0.00684934 0.0151533 0.0107185 -0.00210912 0.00508322 0.0146364 0.0251117 0.00387541 0.00335615 -0.00405906 0.00326254 -0.013171 0.0112192 -0.00174692 0.017479 -0.00491251 0.022668 -0.00448947 -0.00820159 -7.7598e-05 0.0279814 0.0033437 -0.0101556 0.00117783 0.018443 0.0329056 0.0467239 0.0470059 0.0271363 -0.0151009
internal_weight=1751.98 909.239 799.241 842.74 574.743 287.497 224.497 547.994 155.998 263.497 58.9993 294.747 284.497 92.2489 192.248 35.7496 156.498 287.247 222.997 225.997 131.498 84.249 267.247 77.7491 40.4995 165.498 46.7495 109.999 118.749 138.748
internal_count=7008 3637 3197 3371 2299 1150 898 2192 624 1054 236 1179 1138 369 769 143 626 1149 892 904 526 337 1069 311 162 662 187 440 475 555
is_linear=0
shrinkage=1


Tree=1
num_leaves=31
num_cat=0
split_feature=9 6 6 9 6 9 3 3 9 6 10 3 9 8 8 6 5 10 3 6 3 6 10 10 5 9 3 10 6 10
split_gain=47.1979 39.1925 18.98 17.0252 28.5574 13.5713 13.5439 10.8442 10.1697 9.52662 10.6687 9.27351 9.06818 11.6857 7.19338 11.8325 6.64552 9.27867 6.62497 6.55501 6.48177 5.65767 5.57747 5.54719 5.34408 5.24636 6.89817 6.55639 4.84062 4.70542
threshold=-0.00083271061769912824 -0.0016043026698753236 -0.0015057591954246161 0.023042149069545274 0.0036655854200944309 -0.018472489484444906 -0.0026615176937810343 0.00058337128237151436 -0.027202505430240494 -0.015805248171091076 0.084645584495913612 0.0016626653702674912 0.011322889060911836 0.30191221699396442 0.061831516496976033 0.001365221163723618 -0.37940952255126065 0.14193640737524718 0.0027349435287825634 -0.0034545585513114925 0.0012076825611282429 0.0077175842598080644 0.13647813704195152 0.05142093803199075 -0.37940952255126065 0.0087505296740753042 0.00070077032162418906 0.059364586108189531 0.0040845586918294438 0.06762178332553069
decision_type=2 2 2 2 2 2 2 2 2 2 2 2 2 2 2 2 2 2 2 2 2 2 2 2 2 2 2 2 2 2
left_child=2 6 5 4 12 9 -2 24 23 10 -1 21 13 -3 15 -10 17 -11 -13 -18 -14 -9 -16 -4 -5 26 27 -8 -24 -27
right_child=1 3 8 7 -6 -7 25 11 14 16 -12 18 20 -15 22 -17 19 -19 -20 -21 -22 -23 28 -25 -26 29 -28 -29 -30 -31
leaf_value=0.034513733088003533 0.071191539013328725 0.010836280408584736 -0.012521335996417261 0.040943010964462581 -0.017476178069659214 0.0067537760906392248 0.044904771604831965 0 0.028949930360754845 -0.017917123099479525 -0.015689579256807588 0.038534164080247776 0.022797656056486735 -0.010575007476539763 -0.013653389420401391 -0.016696161749779583 0.00016775544170878398 -0.063900817633599047 0.001788849837830166 -0.027584637914406126 -0.011372212018769248 -0.036294720096240414 -0.045968415928404532 -0.050858544696209797 0.017376281590953734 0.016599236961584798 -0.012118184139535103 0.01074034974849551 -0.010557821826610731 0.048374289115035538
leaf_weight=21.496825084090233 17.989084899425507 142.97966153919697 15.246338382363318 39.494120195508003 181.98349803686142 235.71444185078144 22.489971101284027 31.244640246033669 23.748659834265709 57.245958283543587 18.996826574206352 21.247812554240227 100.47411480545998 113.24295693635941 245.98491722345352 32.248245790600777 76.743385404348373 13.248699054121969 28.247305452823639 28.247584417462349 15.247470632195471 15.49926772713661 26.998205944895744 30.243611201643944 69.733084097504616 20.491099074482918 15.997611850500105 38.482946068048477 16.499007895588875 34.234828025102615
leaf_count=86 72 572 61 158 728 943 90 125 95 229 76 85 402 453 984 129 307 53 113 113 61 62 108 121 279 82 64 154 66 137
internal_value=0 0.00789869 -0.00851817 0.00326474 -0.00129236 -0.0015163 0.0311971 0.0155214 -0.0165703 -0.0105546 0.0110308 0.00316361 0.00663822 0.00134935 -0.0135437 0.0027432 -0.0155981 -0.0274021 0.018113 -0.0074416 0.0181937 -0.0126088 -0.01671 -0.0386628 0.026237 0.025201 0.0163253 0.0239439 -0.0331882 0.0370778
internal_weight=1751.74 909.079 842.663 759.394 553.928 451.694 149.686 205.466 390.969 215.979 40.4937 96.239 371.944 256.223 345.479 55.9969 175.486 70.4947 49.4951 104.991 115.722 46.7439 289.482 45.4899 109.227 131.696 76.9705 60.9729 43.4972 54.7259
internal_count=7008 3637 3371 3038 2216 1807 599 822 1564 864 162 385 1488 1025 1382 224 702 282 198 420 463 187 1158 182 437 527 308 244 174 219
is_linear=0
shrinkage=0.05


end of trees

feature_importances:
Column_6=14
Column_9=12
Column_3=9
Column_8=7
Column_10=6
Column_0=5
Column_7=5
Column_5=2

parameters:
[boosting: gbdt]
[objective: binary]
[metric: auc]
[tree_learner: serial]
[device_type: cpu]
[data_sample_strategy: bagging]
[data: ]
[valid: ]
[num_iterations: 500]
[learning_rate: 0.05]
[num_leaves: 31]
[num_threads: 14]
[seed: 42]
[deterministic: 0]
[force_col_wise: 0]
[force_row_wise: 0]
[histogram_pool_size: -1]
[max_depth: 6]
[min_data_in_leaf: 50]
[min_sum_hessian_in_leaf: 0.001]
[bagging_fraction: 0.7]
[pos_bagging_fraction: 1]
[neg_bagging_fraction: 1]
[bagging_freq: 0]
[bagging_seed: 400]
[bagging_by_query: 0]
[feature_fraction: 0.5]
[feature_fraction_bynode: 1]
[feature_fraction_seed: 30056]
[extra_trees: 0]
[extra_seed: 12879]
[early_stopping_round: 0]
[early_stopping_min_delta: 0]
[first_metric_only: 0]
[max_delta_step: 0]
[lambda_l1: 0.1]
[lambda_l2: 1]
[linear_lambda: 0]
[min_gain_to_split: 0]
[drop_rate: 0.1]
[max_drop: 50]
[skip_drop: 0.5]
[xgboost_dart_mode: 0]
[uniform_drop: 0]
[drop_seed: 17869]
[top_rate: 0.2]
[other_rate: 0.1]
[min_data_per_group: 100]
[max_cat_threshold: 32]
[cat_l2: 10]
[cat_smooth: 10]
[max_cat_to_onehot: 4]
[top_k: 20]
[monotone_constraints: ]
[monotone_constraints_method: basic]
[monotone_penalty: 0]
[feature_contri: ]
[forcedsplits_filename: ]
[refit_decay_rate: 0.9]
[cegb_tradeoff: 1]
[cegb_penalty_split: 0]
[cegb_penalty_feature_lazy: ]
[cegb_penalty_feature_coupled: ]
[path_smooth: 0]
[interaction_constraints: ]
[verbosity: -1]
[saved_feature_importance_type: 0]
[use_quantized_grad: 0]
[num_grad_quant_bins: 4]
[quant_train_renew_leaf: 0]
[stochastic_rounding: 1]
[linear_tree: 0]
[max_bin: 255]
[max_bin_by_feature: ]
[min_data_in_bin: 3]
[bin_construct_sample_cnt: 200000]
[data_random_seed: 175]
[is_enable_sparse: 1]
[enable_bundle: 1]
[use_missing: 1]
[zero_as_missing: 0]
[feature_pre_filter: 1]
[pre_partition: 0]
[two_round: 0]
[header: 0]
[label_column: ]
[weight_column: ]
[group_column: ]
[ignore_column: ]
[categorical_feature: ]
[forcedbins_filename: ]
[precise_float_parser: 0]
[parser_config_file: ]
[objective_seed: 16083]
[num_class: 1]
[is_unbalance: 0]
[scale_pos_weight: 1]
[sigmoid: 1]
[boost_from_average: 1]
[reg_sqrt: 0]
[alpha: 0.9]
[fair_c: 1]
[poisson_max_delta_step: 0.7]
[tweedie_variance_power: 1.5]
[lambdarank_truncation_level: 30]
[lambdarank_norm: 1]
[label_gain: ]
[lambdarank_position_bias_regularization: 0]
[eval_at: ]
[multi_error_top_k: 1]
[auc_mu_weights: ]
[num_machines: 1]
[local_listen_port: 12400]
[time_out: 120]
[machine_list_filename: ]
[machines: ]
[gpu_platform_id: -1]
[gpu_device_id: -1]
[gpu_use_dp: 0]
[num_gpu: 1]

end of parameters

pandas_categorical:null
