tree
version=v4
num_class=1
num_tree_per_iteration=1
label_index=0
max_feature_idx=10
objective=binary sigmoid:1
feature_names=Column_0 Column_1 Column_2 Column_3 Column_4 Column_5 Column_6 Column_7 Column_8 Column_9 Column_10
feature_infos=[-0.021889199763377887:0.031176706063365867] [0:0.99999999999999978] [-0.047539745193174721:0.046073680185503729] [-1:1] [-0.045740705665230252:0.036064781935195134] [0:13] [-0.12932026871463423:0.17246728989774787] [-0.0073851283516309808:0.0067733103973838249] [0:1] [-6.351002552797727:5.2492292380314849] [-0.063906963993010324:0.042550467215842103]
tree_sizes=3475 3460 3491 3477 3489 3455 3490 2848 3395 3438 3490 3496 3504 3481 3260 2960 3493 3459 3450 2627 3067 3165 2881 2710 3289 2749 3496 3446 3028 3523 2642 3534 3514 2739 2378 3470 2829 3267 1850 2404 2830 2611 2412 2395 3158 1965 2297 3069 1230 3386 2065 2913 2619 1845 1967 1208 1523 1644 2392 3495 2759 1968 2712 3387 3488 1720 1870 1321 1635 3335 2938 2827 2316 2165 2443 1016 1757 2192 2752 2089 2525 2471 2047 2745 1758 1444 2175 1751 1752 3044 1661 2421 2922 1509 1537 2297 2192 2406 1420 3458 1659 1570 2088 2305 2965 2085 3473 3275 1961 2735 2522 1664 1559 2109 2062 1976 1661 912 2513

Tree=0
num_leaves=31
num_cat=0
split_feature=0 6 7 9 7 0 8 9 7 0 8 0 7 7 7 0 0 7 9 6 6 0 0 0 9 8 0 7 9 9
split_gain=24.0062 15.6528 7.94866 10.4735 6.24437 5.652 5.10816 6.80377 5.89784 9.93495 7.03959 5.66526 5.66048 9.19345 5.35861 4.76152 6.59599 7.50733 6.56778 4.11548 4.68851 12.0664 6.33119 3.74429 3.62425 3.44379 3.31708 3.18462 2.98944 2.7087
threshold=-0.00049117696775274877 0.02472345176335931 -0.00076161993446729949 1.2488981089772373 0.0019143429650577703 -0.00057092991052237741 0.86534636772370288 -0.66533789746521266 -0.00015943503039045828 -0.0033480621913542503 0.61284960048663473 -0.0023213580055883028 -0.0010697995077342752 -0.00057164431789802643 -7.7615956393180236e-05 -0.00023291807477210377 0.00034938840057296977 -0.0011141393226962121 1.6874371530404282 0.026174500972554086 0.03242172019700551 0.00062661452940326889 -7.4407257768027688e-05 0.0017965196639956329 -0.19783447800662798 0.16775916558002027 -0.00036564436124625338 -0.0021252937508212323 -1.6828435286462342 1.7563453222192524
decision_type=2 2 2 2 2 2 2 2 2 2 2 2 2 2 2 2 2 2 2 2 2 2 2 2 2 2 2 2 2 2
left_child=5 4 3 -3 15 6 8 12 10 -10 28 -12 27 -14 -11 25 18 -18 -17 -4 22 -22 -21 -6 -9 -2 -27 -8 -1 -26
right_child=1 2 19 -5 23 -7 7 24 9 14 11 -13 13 -15 -16 16 17 -19 -20 20 21 -23 -24 -25 29 26 -28 -29 -30 -31
leaf_value=0.0034533699201734769 -0.019279718561581456 0.032465454353808987 -0.030110697708964358 -0.013705059144534725 -0.034504439214861009 0.034155590915389986 0.018345941450682919 -0.017700399635650267 0.048142328690071595 -0.021284528277700873 0.011119544871296442 0.048695624482497944 0.063317669126820422 0.016114811466781627 0.0093945675933519521 0.017995460716738 -0.017944405868544115 0.0069523574296959092 -0.015729340653997836 -0.027569404219443629 0.0046588592478153772 -0.022910244070814031 0.0078040648435312608 0.0020841243274084013 0.0074699398085128861 0.013322019747150729 -0.0078263834315254761 -0.011633198495501705 0.021006751003004125 -0.014381692277827008
leaf_weight=29.999647736549377 23.999718189239502 26.749685898423195 22.749732866883278 20.999753415584564 13.499841481447222 34.999589025974274 15.499817997217177 21.499747544527054 14.499829739332197 14.999823868274687 14.249832674860953 37.999553799629211 12.999847352504728 42.749498024582863 127.24850581586361 207.49756351113319 31.499630123376846 437.49486282467842 14.499829739332197 14.249832674860953 63.749251440167427 106.74874652922153 72.499148696660995 14.749826803803442 97.998849272727966 34.999589025974274 36.999565541744232 17.999788641929626 110.74869956076145 15.499817997217177
leaf_count=120 96 107 91 84 54 140 62 86 58 60 57 152 52 171 509 830 126 1750 58 57 255 427 290 59 392 140 148 72 443 62
internal_value=0.00684934 0.00257793 -0.00663292 0.0120524 0.00629902 0.01486 0.0136293 0.00770708 0.0173989 0.0101224 0.0232356 0.0388141 0.0183668 0.028011 0.0060206 0.00713549 0.00859554 0.00524163 0.0156789 -0.00984441 -0.00789662 -0.0127042 0.0017244 -0.0163877 0.000663735 -0.00323198 0.00247042 0.00231385 0.0172325 0.0043701
internal_weight=1751.98 1142.99 327.746 47.7494 815.24 608.993 573.993 224.247 349.746 156.748 192.998 52.2494 89.249 55.7493 142.248 786.991 690.992 468.994 221.997 279.997 257.247 170.498 86.749 28.2497 134.998 95.9989 71.9992 33.4996 140.748 113.499
internal_count=7008 4572 1311 191 3261 2436 2296 897 1399 627 772 209 357 223 569 3148 2764 1876 888 1120 1029 682 347 113 540 384 288 134 563 454
is_linear=0
shrinkage=1


Tree=1
num_leaves=31
num_cat=0
split_feature=10 6 3 6 8 6 10 10 10 9 10 9 8 6 10 10 6 8 8 9 5 5 10 5 10 6 10 10 9 9
split_gain=16.7786 9.49131 7.41597 6.65924 6.40114 5.95912 7.68786 7.82612 7.31667 5.28561 5.69552 5.08021 8.00486 6.46698 6.37545 5.29702 5.11291 4.77563 8.39868 5.43072 4.55994 5.38 4.32572 3.99473 3.90599 3.54078 2.45392 5.21391 1.62329 1.65975
threshold=-0.0018511332953564106 0.014761079237467849 1.0000000180025095e-35 0.045620172171965227 0.061379841952950411 0.034828795804750304 -0.0069639505814492733 -0.0058425116916042677 -0.0097069798026596082 0.11928945373469806 -0.0097069798026596082 0.52645198176775876 0.28287326587321832 0.0031584720024384993 0.0047744935432552102 0.004520965977999337 0.0052532418078907349 0.3571329413235515 0.40419668229972511 1.9314878569198111 1.5000000000000002 1.0000000180025095e-35 0.00031312718313936122 1.5000000000000002 0.0028513262957051704 0.01695867599024203 0.0052171491763807207 0.00078904405244129016 2.0175270672833001 1.4584893531085104
decision_type=2 2 2 2 2 2 2 2 2 2 2 2 2 2 2 2 2 2 2 2 2 2 2 2 2 2 2 2 2 2
left_child=2 11 3 5 25 6 8 -8 -1 10 -4 12 14 15 24 -14 -15 26 -19 -20 21 22 -13 -7 -2 -3 27 -6 29 -27
right_child=1 4 9 -5 17 23 7 -9 -10 -11 -12 20 13 16 -16 -17 -18 18 19 -21 -22 -23 -24 -25 -26 28 -28 -29 -30 -31
leaf_value=0.0047314301325893093 0.010873068231419716 -0.043034874792010944 0.0064499584398256295 0.030487318252775022 0.016338715647531324 0.0024687579118617868 0.030484848523836944 0.0068636994356728216 -0.016636720036108079 -0.0017613359251273627 0.048164373949864142 -0.007439923284087999 -0.0040861033236045908 -0.031392883518858869 -0.015517595292506332 0.01630376150780832 -0.0081856428524714822 -0.044098286547005067 -0.0034815456934988195 -0.018288993565481214 0.035812664869000352 -0.010392213391528465 0.018751584393487057 -0.031116663899958808 0.03891495117659053 -0.01381776450022755 0.019313578372754939 -0.012270278301632449 0 -0.033120761541618915
leaf_weight=106.4893751591444 71.745482012629509 12.999177306890486 12.998391836881632 23.746573284268379 27.247867271304131 15.498069643974302 39.744212821125984 270.22260729968548 62.74045068025589 13.248926609754561 24.496818706393245 19.499216645956039 115.74417245388031 29.498582780361176 18.499262541532516 42.747139915823936 118.2434766292572 14.248511746525763 341.97285835444927 75.244634196162224 13.998948648571966 33.497166037559509 68.247315749526024 18.497520044445992 14.749052077531813 59.245377242565155 21.998344957828522 35.497666388750076 14.498920097947119 14.748688638210295
leaf_count=426 287 52 52 95 109 62 159 1081 251 53 98 78 463 118 74 171 473 57 1368 301 56 134 273 74 59 237 88 142 58 59
internal_value=-1.28678e-07 -0.00347911 0.00687728 0.00511268 -0.00772156 0.0038718 0.00532452 0.0099968 -0.00321244 0.0249928 0.0343764 0.00131256 -0.00144593 -0.00554077 0.0103898 0.0014497 -0.0130328 -0.00542926 -0.00756348 -0.00620135 0.00968591 0.0063601 0.0128567 -0.0160297 0.016102 -0.0191652 0.00534006 0.000136439 -0.0151612 -0.0181223
internal_weight=1751.85 1164.17 587.683 536.939 617.702 513.192 479.197 309.967 169.23 50.7441 37.4952 546.47 411.227 306.233 104.994 158.491 147.742 516.21 431.466 417.217 135.243 121.244 87.7465 33.9956 86.4945 101.492 84.7439 62.7455 88.493 73.9941
internal_count=7008 4657 2351 2148 2471 2053 1917 1240 677 203 150 2186 1645 1225 420 634 591 2065 1726 1669 541 485 351 136 346 406 339 251 354 296
is_linear=0
shrinkage=0.05


Tree=2
num_leaves=31
num_cat=0
split_feature=1 0 7 1 7 0 0 4 4 0 9 0 4 0 9 4 3 9 9 7 7 9 7 9 1 4 7 0 1 4
split_gain=26.9601 10.5144 5.52746 7.10573 5.71871 4.80091 11.8836 5.58945 4.52739 4.48294 9.04647 8.01008 4.44702 4.43373 4.35999 4.14459 3.68046 11.3047 4.95141 3.68857 4.80754 2.88862 4.53151 2.65903 8.70945 3.55594 2.46342 2.16103 2.08577 2.04834
threshold=0.83049219129409035 -0.00049117696775274877 -0.0022698751118364639 0.40077593471673634 -9.8602646710274487e-05 0.0019367258885217844 0.00055349067732168866 0.0032820657489718301 0.0010204616892866005 0.0025011932809356767 -1.3902431541124531 0.0010782909244158036 0.0066334209264874442 0.0014493353515891985 0.2368075238421064 0.0016388411733165855 1.0000000180025095e-35 -0.37624580775051292 0.8934208154916915 0.00049991553440489563 0.00010323438953755423 2.0766984453714836 0.0014500020678804265 0.66255040211407468 0.56685893256256392 -0.0075830421385013605 0.00095716570555613538 -0.00014507347617587205 0.87833321168569767 0.0098164161709413129
decision_type=2 2 2 2 2 2 2 2 2 2 2 2 2 2 2 2 2 2 2 2 2 2 2 2 2 2 2 2 2 2
left_child=1 16 -3 9 8 6 7 15 -5 11 -11 -4 27 -6 -7 -2 18 -18 23 20 -20 26 -23 25 -25 -1 -16 -9 -17 -14
right_child=5 2 3 4 13 14 -8 12 -10 10 -12 -13 29 -15 21 28 17 -19 19 -21 -22 22 -24 24 -26 -27 -28 -29 -30 -31
leaf_value=-0.0041623166666953882 -0.0034603016319193478 -0.031757424204215692 0.0030254366141406184 -0.01389032378123068 0.0033637989933689386 0.022402824711440835 -0.029404232972611327 0.00098384369435001898 0.010696269818324881 -0.042778512265337507 0.0074321892029987017 0.02226255634577861 -0.024712043260515276 -0.010012788247671548 -0.029697746020916474 -0.013436296534972861 0.038750182410396308 -0.0093432683870309924 0.014622119086959696 -0.0034426756507890421 0.045351875203760966 0.020528904254120385 -0.016724917337952467 0.010585174905550734 -0.037823762994294852 0.0079506408757505503 -0.0033764859045733232 0.024613188332702374 -0.041637075107942713 0.0016886390611899169
leaf_weight=75.239162638783455 28.496074736118317 12.998530790209768 238.47043868899345 157.97702421247959 249.97174970805645 13.248725190758703 104.48436146974564 18.246820896863937 20.246845290064812 12.998548641800879 23.99810054898262 69.493759647011757 13.748132541775705 81.242446273565292 18.49646158516407 13.498293131589891 31.732591047883034 18.745307236909866 85.98096838593483 20.24655494093895 14.748491704463957 16.496907547116283 14.246857851743696 22.746324717998505 14.248106628656386 290.18714387714863 17.747114107012749 20.998074054718018 16.99800118803978 13.748316362500189
leaf_count=301 114 52 954 632 1000 53 418 73 81 52 96 278 55 325 74 54 127 75 344 81 59 66 57 91 57 1161 71 84 68 55
internal_value=-4.19609e-07 0.0028776 -0.000591858 -7.52989e-05 -0.00383051 -0.0133439 -0.0170061 -0.00651307 -0.0110252 0.00545099 -0.010739 0.00744058 0.00333366 4.73861e-05 -0.0026946 -0.0176065 0.00812219 0.0209587 0.00683707 0.0156828 0.0195722 -0.00798841 0.00312471 0.00413318 -0.00843233 0.00543845 -0.0173802 0.0140485 -0.0301365 -0.0117401
internal_weight=1751.73 1441.27 867.397 854.399 509.438 310.454 230.218 125.734 178.224 344.961 36.9966 307.964 66.7413 331.214 80.2361 58.9924 573.875 50.4779 523.397 120.976 100.729 66.9873 30.7438 402.421 36.9944 365.426 36.2436 39.2449 30.4963 27.4964
internal_count=7008 5766 3470 3418 2038 1242 921 503 713 1380 148 1232 267 1325 321 236 2296 202 2094 484 403 268 123 1610 148 1462 145 157 122 110
is_linear=0
shrinkage=0.05


Tree=3
num_leaves=31
num_cat=0
split_feature=1 2 4 6 2 4 6 1 6 1 10 1 6 1 9 4 9 9 6 6 2 10 9 2 1 4 4 2 1 4
split_gain=24.3898 9.53847 8.34946 4.30412 7.45848 7.19975 5.15799 5.1258 4.90855 4.15489 4.13896 8.24906 7.92568 5.50073 5.99183 5.35934 5.2837 4.36842 4.31422 6.82048 3.86393 6.05759 3.41914 6.90547 5.12806 8.26734 7.66445 5.10619 5.11105 4.907
threshold=0.83049219129409035 0.00052554944398741654 0.004273415934358816 0.014630822187849305 -0.0073559031618570239 -0.0048114022987726371 0.015435729440298291 0.32269266292011584 0.020911400948155669 0.40077593471673634 0.0034915673461315415 0.92075194849004049 0.036409624680199808 0.95735108848082529 1.7770732710727539 0.0034996136833829188 1.2183433031086197 1.0547473154334774 0.024491608424299895 0.017810429074124955 0.0067764303446005156 0.010439177288754766 -1.3902431541124531 0.00392285093777034 0.53559569870312573 0.00039568082872143423 -0.00054867488347459792 0.003195778670185057 0.38927108149914685 0.0018946816822178472
decision_type=2 2 2 2 2 2 2 2 2 2 2 2 2 2 2 2 2 2 2 2 2 2 2 2 2 2 2 2 2 2
left_child=1 2 3 4 7 8 -7 -1 -5 -6 11 15 13 20 -15 18 -14 -13 19 -2 -12 -22 23 -3 27 26 -26 -24 -29 -27
right_child=10 22 -4 5 9 6 -8 -9 -10 -11 12 17 16 14 -16 -17 -18 -19 -20 -21 21 -23 24 -25 25 29 -28 28 -30 -31
leaf_value=-0.008236568368553512 -0.022185463992354423 -0.00058338166671703662 0.042886046646834625 -0.0047080159016875244 0.014807449509007262 -0.028825392824988628 -0.00029806014847593126 0.024753840444224746 0.027568808889509945 0.0045317656073975577 -0.00013200400657658668 -0.064986063650823919 0.002044952216321345 -0.0025126362679715546 0.036652113030835293 0.010640248707665195 -0.031518945304114511 -0.022872835804895755 -0.03570507121554739 0.017802513819965764 -0.047250335360742912 -0.0036148714840527245 -0.00071753229916820833 -0.031906104741758826 0.0049343399241437652 0.0088063184012501846 -0.041291299643849165 0.001790447398270536 0.02956222589357084 -0.0069771009088393388
leaf_weight=89.977704167366028 31.994084760546684 46.987289816141129 13.997047290205954 16.24645671248436 266.90639199316502 15.74577711522579 302.92298842966557 12.495328545570372 37.488830074667931 159.96650171279907 61.980293557047844 12.496359720826151 15.245349943637846 21.744248688220978 16.245182707905769 18.991730764508247 44.724878787994385 15.493820354342459 23.739326968789101 14.746682062745093 12.49598281085491 20.494158148765564 125.72779223322868 27.493244260549545 12.746545881032942 72.739638119935989 26.495608985424042 32.492880299687386 33.995016291737556 146.7254490852356
leaf_count=360 128 188 56 65 1068 63 1212 50 150 640 248 50 61 87 65 76 179 62 95 59 50 82 503 110 51 291 106 130 136 587
internal_value=-2.71171e-06 0.00273453 0.00581508 0.00518725 0.00808188 0.00104874 -0.00180903 -0.00396512 0.0178111 0.010988 -0.0126957 -0.0201043 -0.00807898 -0.00118526 0.0146174 -0.0123493 -0.0230109 -0.0434401 -0.0186762 -0.00935591 -0.00764508 -0.021194 -0.00262604 -0.0124814 -0.000963114 -0.00555941 -0.0264026 0.00519402 0.0162918 -0.00170694
internal_weight=1751.54 1441.15 915.747 901.75 529.346 372.404 318.669 102.473 53.7353 426.873 310.392 117.462 192.93 132.96 37.9894 89.4718 59.9702 27.9902 70.4801 46.7408 94.9704 32.9901 525.403 74.4805 450.923 258.707 39.2422 192.216 66.4879 219.465
internal_count=7008 5766 3664 3608 2118 1490 1275 410 215 1708 1242 470 772 532 152 358 240 112 282 187 380 132 2102 298 1804 1035 157 769 266 878
is_linear=0
shrinkage=0.05


Tree=4
num_leaves=31
num_cat=0
split_feature=1 0 0 4 1 0 3 8 8 8 0 0 4 4 8 1 4 8 8 8 4 10 4 4 10 1 1 4 4 3
split_gain=22.1112 9.36013 5.41136 7.96851 6.8435 5.01968 6.73802 6.01956 4.61758 4.27904 4.24578 10.7031 4.82727 3.91235 3.78604 5.42557 5.65196 3.78533 5.39335 3.85996 3.74678 4.1271 3.61454 6.23145 5.00774 3.37771 4.28045 3.12322 4.70421 2.68886
threshold=0.83049219129409035 -0.00049117696775274877 -0.00028307750988382224 0.0010204616892866005 0.12530699683842558 0.0020815955471684693 1.0000000180025095e-35 0.88346587441951929 0.16775916558002027 0.86534636772370288 0.0019367258885217844 0.00055349067732168866 0.0032820657489718301 0.0066334209264874442 0.62374639124033704 0.087480689403703474 -0.0013694238223965758 0.77954022254557354 0.64618431185532932 0.43276678297464255 0.0016388411733165855 0.0027782133816740555 -0.00012053219683821891 0.00062884124232298621 -0.0026317321964645641 0.77995257897627712 0.73024025564081962 0.0068287361852842352 0.0045082341943480939 1.0000000180025095e-35
decision_type=2 2 2 2 2 2 2 2 2 2 2 2 2 2 2 2 2 2 2 2 2 2 2 2 2 2 2 2 2 2
left_child=1 9 3 8 -4 7 -7 -6 -3 14 11 12 20 -14 22 -16 -17 18 19 -13 -2 -22 24 -24 -1 26 29 28 -19 -11
right_child=10 2 4 -5 5 6 -8 -9 -10 25 -12 17 13 -15 15 16 -18 27 -20 -21 21 -23 23 -25 -26 -27 -28 -29 -30 -31
leaf_value=0.0047553649120501184 -0.0024794815166784881 -0.040732936729830728 0.026159500549829309 0.015289341753518771 -0.0019451645420487343 -0.013549605036063431 0.020662834686811297 0.0083097929732484643 -0.011749931957047261 0.00050434407423543225 -0.0020819167309170431 -0.035395995224132025 0.01360465991979512 -0.010582690263789149 -0.0062379829296932048 0.039996922935905926 0.011820538566069655 -0.021547779833834282 -0.064291887176653115 -0.0024737519812114261 -0.043061487896354493 -0.0053318204675155759 -0.022284370766209486 0.0079929220655317844 0.021674905834538568 0.025632494962325017 -0.025516031787602873 -0.035296199560738033 0.016259529958164511 0.020706973539850258
leaf_weight=109.19027179479599 28.490846112370491 18.744763433933258 24.491064190864563 19.746952474117279 404.90523126721382 111.46941873431206 15.49480628967285 219.70287936925888 52.739032045006752 177.695367410779 80.195564970374107 32.962457358837128 39.239537566900253 27.487595349550247 15.736840575933455 34.715843006968498 39.235329642891884 19.984887093305588 12.735722765326498 12.736731320619581 17.480369448661808 12.993690758943556 23.241508945822716 55.727026909589767 73.965631544589996 13.245947033166884 13.746339216828344 13.487557232379912 12.492646336555479 17.230261266231537
leaf_count=437 114 75 98 79 1620 446 62 879 211 711 321 132 157 110 63 139 157 80 51 51 70 52 93 223 296 53 55 54 50 69
internal_value=-6.81826e-06 0.00259913 -0.000674075 -0.012127 0.000679725 -0.000177583 -0.00920638 0.00166149 -0.0198761 0.00754842 -0.0120948 -0.0155389 -0.00558485 0.00355795 0.0109741 0.0198452 0.0254716 -0.0273089 -0.0358243 -0.0265768 -0.0159014 -0.0278135 0.00785589 -0.0010228 0.0116959 0.00207031 0.000435678 -0.0158447 -0.00680437 0.00241223
internal_weight=1751.31 1441.02 867.294 91.2307 776.063 751.572 126.964 624.608 71.4838 573.73 310.288 230.092 125.692 66.7271 351.812 89.688 73.9512 104.4 58.4349 45.6992 58.9649 30.4741 262.124 78.9685 183.156 221.918 208.672 45.9651 32.4775 194.926
internal_count=7008 5766 3470 365 3105 3007 508 2499 286 2296 1242 921 503 267 1408 359 296 418 234 183 236 122 1049 316 733 888 835 184 130 780
is_linear=0
shrinkage=0.05


Tree=5
num_leaves=31
num_cat=0
split_feature=1 2 5 9 2 3 9 2 2 1 2 1 2 9 8 8 1 1 8 1 2 1 9 9 2 1 1 9 9 1
split_gain=20.0798 8.37308 4.93444 6.64924 4.72195 4.41818 7.80333 3.79944 4.29336 3.74992 3.62496 3.84591 3.56613 4.9654 3.53976 6.40506 3.50848 3.29309 3.32032 3.22201 3.21663 11.1595 4.97835 3.15701 6.24852 4.65946 4.86529 5.75269 4.78113 5.58679
threshold=0.83049219129409035 0.00052554944398741654 1.0000000180025095e-35 -1.4302031192635867 -0.0078692669480489568 1.0000000180025095e-35 -0.33055320370794045 0.0025692070728683407 0.0029319996511771866 0.049025302392473019 0.0012227749076534347 0.8482021626994799 0.00011349577288843894 0.47468511235749905 0.61605362003737085 0.99985453251587209 0.93071124635054781 0.9623266418092441 0.93123908513622256 0.87833321168569767 -0.00039033747528444124 0.42630740941334683 -1.7434981729383616 -1.3902431541124531 0.003195778670185057 0.53559569870312573 0.48110876441939882 -0.48823381337655875 -0.99777898404343379 0.78695717342773353
decision_type=2 2 2 2 2 2 2 2 2 2 2 2 2 2 2 2 2 2 2 2 2 2 2 2 2 2 2 2 2 2
left_child=1 2 12 4 -4 9 -7 10 -9 -5 11 -2 20 -14 19 -16 -12 -10 -19 -13 22 -22 -1 24 -3 26 27 -25 -27 -30
right_child=7 23 3 5 -6 6 -8 8 17 -11 16 14 13 -15 15 -17 -18 18 -20 -21 21 -23 -24 25 -26 28 -28 -29 29 -31
leaf_value=-0.010355584384838211 -0.034612377880356551 0.00138091197544467 0.0015257350855356403 -0.021317065225827256 0.020697721298377589 0.037455959958660599 -0.005656293469934414 0.018708794621313096 -0.013362455918320202 0.0001535793736679146 -0.019220123827675892 0.021282714006802313 0.010167509697853697 0.047504695612112458 -0.037684609895824304 0.0068410726964089775 -0.051121531018430505 -0.0097517194650354813 0.016187713587038098 -0.0087445583909585411 0.027583764367248433 -0.026173445499852274 0.014721104656796304 -0.011806736550198718 -0.027299824104960249 0.020694056404099721 0.020579452635740458 0.0081577244417503254 -0.010921618815297799 0.0077297396129606608
leaf_weight=21.737531304359436 13.985623404383658 39.985462486743927 54.732626870274544 20.23813259601593 79.435864821076393 20.207825988531113 19.990236416459084 13.983119562268255 126.10573329031467 469.50188036262989 30.2092225253582 15.238057509064673 23.744094863533974 14.496202945709227 17.230825901031494 13.736426770687105 13.221602156758307 26.218700796365738 21.485436052083969 18.724258676171303 15.2441019564867 22.745435938239098 153.44606789946556 55.734040036797523 34.486841142177582 15.496120050549505 38.485515221953392 97.975446939468384 193.68920074403286 49.486344516277313
leaf_count=87 56 160 219 81 318 81 80 56 505 1879 121 61 95 58 69 55 53 105 86 75 61 91 614 223 138 62 154 392 775 198
internal_value=-9.97361e-06 0.00247303 0.00535994 0.00308226 0.0129829 0.000546499 0.0162783 -0.0115326 -0.00696302 -0.000765121 -0.0183927 -0.0116597 0.0113205 0.0252987 -0.00618992 -0.0181814 -0.0299764 -0.00915215 0.00192096 0.00480832 0.0086833 -0.00431978 0.01154 -0.00254917 -0.0120201 -0.000950596 0.00491814 0.0008569 -0.00533252 -0.00708947
internal_weight=1751 1440.86 915.52 664.107 134.168 529.938 40.1981 310.139 187.793 489.74 122.346 78.9152 251.413 38.2403 64.9296 30.9673 43.4308 173.81 47.7041 33.9623 213.173 37.9895 175.184 525.339 74.4723 450.867 192.195 153.709 258.672 243.176
internal_count=7008 5766 3664 2658 537 2121 161 1242 752 1960 490 316 1006 153 260 124 174 696 191 136 853 152 701 2102 298 1804 769 615 1035 973
is_linear=0
shrinkage=0.05


Tree=6
num_leaves=31
num_cat=0
split_feature=0 6 4 2 2 0 5 6 0 5 2 4 8 6 6 6 0 0 6 6 0 0 6 8 6 2 2 4 8 6
split_gain=16.8109 11.5903 6.1813 5.71033 6.66639 6.42154 6.58054 5.92315 5.21384 5.16318 5.4972 6.94291 4.98616 4.74247 4.49993 4.31421 4.15562 7.00784 7.96142 4.03319 3.94116 3.80628 7.37278 3.73608 4.18212 5.41615 3.5122 8.57388 2.26915 1.9842
threshold=-0.00049117696775274877 0.02472345176335931 -0.0035839579353078017 0.0013951394940058261 0.0022368226858542344 0.0042701231428634587 1.0000000180025095e-35 0.018981617748749655 -0.00057092991052237741 1.5000000000000002 -0.0015698434683527049 -0.0027402322733093283 0.16775916558002027 -0.022513007478638995 0.0218410864554489 0.034828795804750304 -0.00030462567339056829 0.00055349067732168866 0.036409624680199808 0.036698923863414085 0.0030681071412168586 0.00026844564201533588 0.013530000953480639 0.85977071337411926 0.016311262745954017 0.0033141628489984369 -0.00035321178453634467 -0.0030785252842753792 0.68350346048321431 0.013530000953480639
decision_type=2 2 2 2 2 2 2 2 2 2 2 2 2 2 2 2 2 2 2 2 2 2 2 2 2 2 2 2 2 2
left_child=8 3 -3 5 21 6 7 -2 9 23 11 14 -8 -6 -11 -13 -4 18 -18 -19 -15 -5 -23 24 25 -1 27 -25 -26 -28
right_child=1 2 16 4 13 -7 12 -9 -10 10 -12 15 -14 20 -16 -17 17 19 -20 -21 -22 22 -24 26 28 -27 29 -29 -30 -31
leaf_value=0.0027140848020005379 0.0064393555339144759 0.015833138484576754 -0.034420989419517205 -0.001371215573781222 0.024817406084324471 -0.029023614530346943 -0.016222746848017323 0.028208475573538769 0.025223306987743024 0.0024430620361395212 -0.019448910492625572 0.030639022004400558 0.0019120055336334749 -0.00558446929619957 0.023943971610267525 -0.00057961227514736525 -0.013493967924367682 -0.009805229389416685 0.014781846633332188 -0.024652799437933862 0.013431441780588067 -0.012885072303874173 -0.054432088060829879 0.011031028588919842 0.0089943261247002384 -0.030742431359593043 0.012590034914776844 -0.028794216969013221 0.029012681149841998 -0.0053974864789757479
leaf_weight=99.136588394641876 210.12871690094471 18.485071867704391 20.982785597443581 23.480077892541885 14.990828946232794 13.991289079189299 47.972590267658234 36.234651401638985 34.961102530360222 125.89262594282627 12.990567252039908 62.198166504502296 165.68499217927456 220.86963696777821 29.476349905133247 12.992276579141615 53.96719691157341 97.394602745771408 44.475685834884644 92.097523137927055 29.983675479888916 36.477561414241791 14.985541626811026 20.234469637274742 84.695761650800705 12.745724111795424 26.733719989657402 36.483448281884193 16.980987370014191 32.98306979238987
leaf_count=397 841 74 84 94 60 56 192 145 140 504 52 249 663 884 118 52 216 390 178 369 120 146 60 81 339 51 107 146 68 132
internal_value=-9.1015e-06 -0.00358745 -0.0115181 -0.000384428 -0.00531796 0.0031557 0.0042061 0.00976242 0.00669435 0.00551426 0.0110237 0.0128388 -0.00219311 -0.00155903 0.00668119 0.0252423 -0.0132167 -0.0115403 -0.000648724 -0.0171393 -0.0032474 -0.01839 -0.0258854 0.0014119 0.00534424 -0.00129159 -0.00574211 -0.0145547 0.0126363 0.00264746
internal_weight=1750.71 1142.2 327.403 814.8 340.787 474.012 460.021 246.363 608.505 573.544 243.55 230.559 213.658 265.844 155.369 75.1904 308.918 287.935 98.4429 189.492 250.853 74.9432 51.4631 329.994 213.559 111.882 116.435 56.7179 101.677 59.7168
internal_count=7008 4572 1311 3261 1364 1897 1841 986 2436 2296 975 923 855 1064 622 301 1237 1153 394 759 1004 300 206 1321 855 448 466 227 407 239
is_linear=0
shrinkage=0.05


Tree=7
num_leaves=25
num_cat=0
split_feature=1 2 10 3 6 6 2 7 7 7 7 2 10 7 10 6 1 1 10 6 6 6 1 7
split_gain=17.3085 6.94471 7.8133 4.93547 9.94723 5.58928 4.14661 4.09388 4.23398 4.05239 7.04297 4.51956 7.63512 4.15685 4.00299 7.36578 7.12585 4.71623 4.21685 2.91732 3.45544 2.1115 1.49188 0.835827
threshold=0.83049219129409035 0.00052554944398741654 0.0061682815330458282 1.0000000180025095e-35 0.0035681291704035608 -0.0054629488162947241 -0.0013716645724660135 0.0023777572110989698 0.0019143429650577703 0.0019143429650577703 0.0013464970051714493 0.0067764303446005156 0.0042192705027122033 0.00044976872396704459 0.0034915673461315415 0.028688641971253506 0.92075194849004049 0.86051919544192035 0.0025316315136677541 0.053324050805994609 0.032667406943410117 -0.0054629488162947241 0.95735108848082529 0.00036093071656143825
decision_type=2 2 2 2 2 2 2 2 2 2 2 2 2 2 2 2 2 2 2 2 2 2 2 2
left_child=1 2 3 19 5 -5 -6 8 14 10 11 12 -3 -13 16 17 18 -16 -2 20 -1 -12 -17 -18
right_child=7 9 -4 4 6 -7 -8 -9 -10 -11 21 13 -14 -15 15 22 23 -19 -20 -21 -22 -23 -24 -25
leaf_value=0.0038487513919840777 -0.0047183511799465637 -0.0048937347151058793 0.041737964154988885 0.018107894886903668 0.010569874778501909 0.060712635272305165 -0.023330097904575478 0.011985719950785571 -0.037433327324915826 -0.022368923571031513 0.036901652825994245 -0.03971410633609547 0.010948113445380228 -0.0048969405367644192 -0.021897367858165526 -0.021750665392059668 -0.027296305520347664 0.0092051503132934542 -0.031769238103804519 0.021675113056011528 -0.0068109195050034257 0.0088591607085741382 -0.0054154652633184941 -0.050423080750508678
leaf_weight=725.7028052508831 70.866991832852364 341.33664380013943 13.235244274139403 20.704698517918587 26.196341797709465 13.215112477540968 12.486258491873739 17.718072950839996 14.971175611019133 22.98943704366684 12.741777539253237 14.238438189029692 96.704570889472961 21.238951608538628 13.483093857765196 51.133747637271881 15.195187851786615 74.930991128087044 17.470355927944183 19.975122705101967 83.689610600471497 15.989139944314955 21.45386578142643 12.689277470111845
leaf_count=2905 284 1366 53 83 105 53 50 71 60 92 51 57 387 85 54 205 61 300 70 80 335 64 86 51
internal_value=-9.3635e-06 0.00229564 0.00492549 0.00433416 0.0167643 0.0361131 -0.000558779 -0.0107118 -0.0121414 -0.0022779 -0.00130572 -0.00279169 -0.00136804 -0.0197131 -0.0106279 -0.00542419 -0.0176862 0.00421426 -0.0104199 0.00322113 0.00273335 0.0222867 -0.0171298 -0.0393749
internal_weight=1750.36 1440.44 915.205 901.97 72.6024 33.9198 38.6826 309.913 292.195 525.239 502.25 473.519 438.041 35.4774 277.224 161.002 116.222 88.4141 88.3373 829.368 809.392 28.7309 72.5876 27.8845
internal_count=7008 5766 3664 3611 291 136 155 1242 1171 2102 2010 1895 1753 142 1111 645 466 354 354 3320 3240 115 291 112
is_linear=0
shrinkage=0.05


Tree=8
num_leaves=30
num_cat=0
split_feature=0 6 7 9 7 0 6 6 6 7 7 6 8 9 7 7 7 0 8 7 0 0 0 9 0 7 7 9 9
split_gain=14.5407 9.89517 5.7457 8.83492 5.44071 4.78116 4.28288 4.00481 3.90336 5.03103 4.02041 3.89068 3.88857 5.42811 4.75447 8.38467 4.60187 8.91938 6.10491 4.95223 4.92284 3.75803 5.7556 3.40403 3.29155 3.07045 2.72764 2.68277 2.11944
threshold=-0.00049117696775274877 0.02472345176335931 -0.00076161993446729949 1.0547473154334774 0.0019143429650577703 -0.00057092991052237741 -0.039178248536085362 0.040973712837806028 0.022224763124055281 -0.00018450330866968243 -0.0012004094183575421 0.026174500972554086 0.86534636772370288 -0.66533789746521266 -0.0010697995077342752 -0.00057164431789802643 -0.00015943503039045828 -0.0033480621913542503 0.61284960048663473 -7.7615956393180236e-05 -0.0023213580055883028 -0.00030462567339056829 0.00055349067732168866 -0.19783447800662798 0.0017965196639956329 -0.0021252937508212323 -0.00050175602076107928 -1.6828435286462342 0.71188995753749962
decision_type=2 2 2 2 2 2 2 2 2 2 2 2 2 2 2 2 2 2 2 2 2 2 2 2 2 2 2 2 2
left_child=5 4 3 -3 6 12 -2 -5 10 -10 -8 -4 16 14 25 -16 18 -18 27 -19 -20 -13 -23 -15 -6 -14 -25 -1 -7
right_child=1 2 11 7 24 28 8 -9 9 -11 -12 21 13 23 15 -17 17 19 20 -21 -22 22 -24 26 -26 -27 -28 -29 -30
leaf_value=-0.0050552691095647941 0.027823177301532206 0.027467635380448246 -0.033037280494747155 -0.03343970727665737 -0.038569700914551884 0.013168483542223199 -0.017786132891896109 0.0050440962704609319 -0.0073489821270300518 0.026371360639142877 -0.00016226137521947831 -0.034510228753003996 0.010543664082976134 -0.024165493312349452 0.052061702531801091 0.007011425641254578 0.038037014270775993 -0.028161870895759847 0.002345161570519587 0.0013325716415342999 0.037275462606110449 0.001005861055313125 -0.015298575877561111 -0.012384329788973846 -0.0042436621126487432 -0.018896456511543563 0.0033534567219074365 0.01155673238826662 0.039647914350525122
leaf_weight=29.973647713661194 12.986468151211737 22.475404843688011 22.700972020626068 12.739104688167574 13.47862131893635 21.948764026165009 32.976355358958244 12.483574107289312 16.739000573754311 28.719588652253151 694.95498216152191 15.968121901154516 15.494742900133131 21.491884589195251 12.959180846810339 42.695456370711327 14.466381534934042 14.987608283758162 14.233615979552267 127.1204300224781 37.879044771194458 80.436828270554543 160.35704056918621 43.97679603099823 14.741659104824064 17.991826251149178 69.449850708246231 110.61143478751183 12.976463943719862
leaf_count=120 52 90 91 51 54 88 132 50 67 115 2782 64 62 86 52 171 58 60 57 509 152 322 643 176 59 72 278 443 52
internal_value=-1.11552e-05 -0.00333995 -0.010671 0.00520338 -0.000380019 0.00622434 0.000400438 -0.0147361 -8.89115e-05 0.0139561 -0.000990813 -0.0134071 0.00509442 -2.72881e-05 0.00946452 0.0183234 0.00838498 0.00195961 0.013543 -0.00191821 0.0280528 -0.0115308 -0.00984979 -0.00635884 -0.0215685 -0.00521836 -0.00275947 0.00796894 0.0239759
internal_weight=1750.01 1141.76 327.161 47.6981 814.597 608.257 786.376 25.2227 773.39 45.4586 727.931 279.463 573.332 224.06 89.1412 55.6546 349.272 156.574 192.698 142.108 52.1127 256.762 240.794 134.919 28.2203 33.4866 113.427 140.585 34.9252
internal_count=7008 4572 1311 191 3261 2436 3148 101 3096 182 2914 1120 2296 897 357 223 1399 627 772 569 209 1029 965 540 113 134 454 563 140
is_linear=0
shrinkage=0.05


Tree=9
num_leaves=31
num_cat=0
split_feature=1 0 0 5 9 1 0 9 1 0 6 0 6 6 7 9 6 6 5 1 6 7 9 6 9 1 9 1 7 1
split_gain=15.2769 7.75189 6.22319 7.39479 6.24503 6.13203 4.78607 6.08555 5.39452 4.40834 7.25594 4.84832 4.7348 5.9135 3.93225 3.63102 3.55671 3.48091 3.44394 6.0483 3.29034 3.2795 2.92168 2.56967 6.71922 2.31085 2.16265 1.80588 1.05047 0.701715
threshold=0.87833321168569767 -0.00049117696775274877 -0.00028307750988382224 1.0000000180025095e-35 -0.5507053039897486 0.12530699683842558 0.00044203203919579442 1.2895240287556857 0.21160589613745731 0.0020283016548079407 0.018122131049508241 0.00055349067732168866 0.016311262745954017 0.026174500972554086 3.2558679733638044e-05 -0.25361661475104097 0.040973712837806028 0.034828795804750304 1.5000000000000002 0.19634486970199858 0.046517035580453135 -0.00038135855988799224 -2.4507385919470352 0.02927566533587558 1.8744472582557845 0.91419063577437265 1.207697265971271 0.9623266418092441 0.00055038809994688027 0.98279163511172196
decision_type=2 2 2 2 2 2 2 2 2 2 2 2 2 2 2 2 2 2 2 2 2 2 2 2 2 2 2 2 2 2
left_child=1 16 3 15 -5 -4 7 -7 -8 11 -11 12 -2 -14 -6 -3 17 18 22 -20 -18 -19 -1 24 25 -13 -22 -12 -15 -29
right_child=9 2 5 4 14 6 8 -9 -10 10 27 23 13 28 -16 -17 20 21 19 -21 26 -23 -24 -25 -26 -27 -28 29 -30 -31
leaf_value=-0.017381381340874098 0.010303593985301885 -0.010543313383763749 0.024441852797901863 -0.00031048346883107386 -0.041258496389525348 0.0076180781957083631 -0.019211180979319099 -0.011246687126065615 -0.0017404530780340073 0.028189488355091247 -0.019955299322463909 -0.047545593863305508 -0.040552623854937714 -0.011805086519897715 -0.0084846475678169667 0.024654906828771504 0.038140755041222857 -0.028777215415602145 0.0024288509253870649 0.018724765261728213 0 0.0047720816402171008 0.0035355157709560294 -0.039279718711923123 0.0087746750197910325 -0.01949429780113901 0.02525306024869205 0.0069553138217517633 0.0071789545006270333 -0.009066712187704629
leaf_weight=16.72374127805233 23.444261237978935 12.494030803442003 24.466419577598572 23.730903714895248 32.696764186024666 255.3527979850769 47.961768135428429 50.206001788377762 468.04088379442692 14.492000699043272 25.4265988022089 12.466685369610785 15.708955481648443 13.715317949652674 13.985211119055746 14.985881134867666 14.737758621573446 13.485217303037645 116.80646480619907 112.2611645758152 21.46710442006588 13.737854629755018 275.08759844303131 25.30738453567028 14.96885961294174 24.654813691973686 12.723914459347723 12.468548193573953 13.23651637136936 12.721936866641043
leaf_count=67 94 50 98 95 131 1022 192 201 1874 58 102 50 63 55 56 60 59 54 468 450 86 55 1102 102 60 99 51 50 53 51
internal_value=-9.23011e-06 0.00170958 -0.00110669 -0.0129761 -0.0214961 0.000274498 -0.000467976 0.00447555 -0.00340802 -0.012677 -0.00176033 -0.0175489 -0.00733537 -0.0171574 -0.0319287 0.00866782 0.00616493 0.00497805 0.0059017 0.0104835 0.0189943 -0.0121005 0.00226442 -0.0260037 -0.0188411 -0.0300461 0.00975 -0.010812 -0.00237953 -0.000982604
internal_weight=1749.56 1540.95 943.921 97.8928 70.4129 846.028 821.561 305.559 516.003 208.612 65.1091 143.503 66.1051 42.6608 46.682 27.4799 597.031 548.102 520.879 229.068 48.9288 27.2231 291.811 77.3977 52.0904 37.1215 34.191 50.6171 26.9518 25.1905
internal_count=7008 6171 3779 392 282 3387 3289 1223 2066 837 261 576 265 171 187 110 2392 2196 2087 918 196 109 1169 311 209 149 137 203 108 101
is_linear=0
shrinkage=0.05


Tree=10
num_leaves=31
num_cat=0
split_feature=0 10 5 7 8 0 8 0 5 10 0 4 0 10 8 10 10 10 8 4 8 8 8 10 8 0 4 4 4 7
split_gain=11.9211 7.83546 8.21705 7.33718 6.50077 8.57323 8.26703 4.33984 4.17647 4.56228 3.72457 5.26852 8.14347 7.41167 6.97928 4.03083 3.43901 4.7436 3.3107 4.38675 3.15431 3.37261 8.23695 4.76612 3.363 3.32525 3.14621 5.07749 3.02329 2.19068
threshold=-0.00049117696775274877 -0.0020541455182772057 1.5000000000000002 -0.00019204879036803548 0.921269525124503 0.0017023295655446138 0.72858416554658045 -0.00057092991052237741 1.5000000000000002 0.00049664745428335 0.0032777340869122322 0.0068287361852842352 0.0025011932809356767 0.0043034718070217312 0.64013692293511693 0.013662743874620966 -0.0065635137592979778 -0.0097069798026596082 0.99601032021649283 -0.00081864342231663379 0.85977071337411926 0.55554410250530972 0.4476035597190357 -3.9702675682096171e-05 0.96040710784682104 -0.0017806296257683039 0.012666445815072593 0.00811489429867507 0.0024666075243580114 -0.0010961327573524476
decision_type=2 2 2 2 2 2 2 2 2 2 2 2 2 2 2 2 2 2 2 2 2 2 2 2 2 2 2 2 2 2
left_child=7 2 3 4 6 -6 -2 8 20 18 11 12 13 -3 -13 -16 17 -4 19 -10 21 22 -1 -23 -22 -26 27 28 -12 -20
right_child=1 10 16 -5 5 -7 -8 -9 9 -11 26 14 -14 -15 15 -17 -18 -19 29 -21 24 23 -24 -25 25 -27 -28 -29 -30 -31
leaf_value=0.0055318514773373545 0.0037519135242132969 -0.0063509955854198349 -0.00051908225137398979 0.029222772878021053 0.034013560331663868 -0.013746968323034276 -0.039044060833059745 0.022556543761729345 0.015307969246697174 0.034100556337452091 0.018915320126345569 0.0027906066190390168 -0.028351296338364657 0.0060869993295189547 -0.038530813188106805 -0.0088571879874827248 0.00034749035407399522 -0.037030083165230758 -0.0089136033513092482 -0.012155662240827066 -0.023603656424942655 -0.0010861877886770017 -0.025880672421610962 0.026079441467732459 0.01010187144455107 -0.008866614513053454 -0.013261177225205362 0.037749217542587893 -0.0088144007300140544 0.0070013462712475039
leaf_weight=125.82533302903175 61.939925134181976 553.7152905613184 17.981219932436943 42.21511934697628 30.961459562182426 12.485310509800909 12.730441078543661 34.877547517418861 125.92165178060532 16.708598136901855 15.485557913780211 25.668692097067833 34.201557725667953 151.50997334718704 34.621397912502289 18.672818526625633 60.434042021632195 17.232781976461411 38.729220241308212 15.466192439198492 20.48587541282177 28.399714916944504 23.974365219473839 35.187561422586441 36.204025268554688 59.701153442263603 15.212140053510664 12.977807149291037 23.200522243976593 46.401613846421242
leaf_count=504 248 2218 72 169 124 50 51 140 505 67 62 103 137 607 139 75 242 69 155 62 82 114 96 141 145 239 61 52 93 186
internal_value=-1.23944e-05 -0.00302724 0.00465403 0.0115579 0.00501014 0.0201756 -0.00389779 0.00563517 0.004559 0.00951725 -0.00525671 -0.00618756 -0.00485217 -0.00366691 -0.0184129 -0.0285807 -0.00686684 -0.0190538 0.00754004 0.0122044 0.000869207 0.00448741 0.000333061 0.0140402 -0.0057034 -0.0016241 0.00598408 0.0118899 0.00235641 -0.000200339
internal_weight=1749.13 1141.25 255.98 160.332 118.117 43.4468 74.6704 607.883 573.005 243.227 885.266 818.39 739.427 705.225 78.9629 53.2942 95.648 35.214 226.519 141.388 329.778 213.387 149.8 63.5873 116.391 95.9052 66.876 51.6639 38.6861 85.1308
internal_count=7008 4572 1025 642 473 174 299 2436 2296 975 3547 3279 2962 2825 317 214 383 141 908 567 1321 855 600 255 466 384 268 207 155 341
is_linear=0
shrinkage=0.05


Tree=11
num_leaves=31
num_cat=0
split_feature=1 2 4 5 2 2 1 8 2 10 10 2 8 8 8 2 1 8 8 1 2 1 10 4 2 10 4 1 10 8
split_gain=13.3519 5.61015 7.44345 5.30806 3.82659 3.95102 3.74051 6.13751 5.27477 3.40088 10.4445 5.70848 3.29837 2.97885 4.34674 2.92795 3.70743 3.13269 5.92469 2.98347 2.77941 2.69985 2.53919 7.65325 5.63322 4.30964 3.46198 8.65029 4.22485 3.13344
threshold=0.83049219129409035 0.00052554944398741654 0.004273415934358816 1.0000000180025095e-35 0.0025692070728683407 0.0029319996511771866 0.46816786201738636 0.96040710784682104 -0.0071313228591244329 -0.0047398628530322942 -0.0097069798026596082 -7.6713863516653089e-05 1.0000000180025095e-35 0.65976359881436919 0.77226380348385504 0.0012227749076534347 0.8482021626994799 0.61605362003737085 0.99985453251587209 0.93071124635054781 0.0067764303446005156 0.87833321168569767 0.0042192705027122033 0.0028470552774885198 0.0067764303446005156 0.0047744935432552102 0.00062884124232298621 0.67923553344797793 0.0036974488122033526 0.10108824972358432
decision_type=2 2 2 2 2 2 2 2 2 2 2 2 2 2 2 2 2 2 2 2 2 2 2 2 2 2 2 2 2 2
left_child=1 2 3 9 15 -6 8 -8 -5 10 -1 -11 -7 20 -15 16 -2 21 -19 -17 -14 -18 23 26 25 -24 27 -3 -28 -27
right_child=4 22 -4 6 5 12 7 -9 -10 11 -12 -13 13 14 -16 19 17 18 -20 -21 -22 -23 24 -25 -26 29 28 -29 -30 -31
leaf_value=-0.0082104018312632986 -0.032773254757692792 -0.0024265323510640675 0.039405125732421845 -0.0048155448346584983 0.019773511638018389 -0.023869926370665248 -0.0094836897734804707 0.0076895408225732239 0.007615461303486554 0.0015755047628187959 0.036791646109844194 0.021317714726429519 0.014856328450397891 -0.033526124154746838 -0.0045572248012382818 -0.016852195212749537 0.020497711592381843 -0.035014775448787575 0.0077977279715054099 -0.046295811708570285 -0.0078576068687529494 -0.0069985423943170928 0.029597027686298707 -0.024781251114908788 -0.011567009404657661 -0.01746291214007633 0.0065714344661002844 -0.036532154863646971 -0.021160904878604579 0.0080813755109919658
leaf_weight=19.225736066699028 13.95473340153694 155.84727598726749 13.960195600986479 116.33208440244198 13.960329279303549 23.913580313324928 152.91604295372963 77.413087248802185 309.8195616453886 140.35040619969368 35.429402351379395 48.948043867945671 30.884467363357544 14.650832355022429 81.724240064620972 30.125223129987717 15.228836834430693 17.180609196424484 13.71857510507107 13.115062832832335 22.173317924141884 18.682173550128937 19.980561777949333 39.966509759426117 45.43958991765976 12.993345290422438 134.67330253124237 20.211083084344864 14.242330521345137 81.669402614235878
leaf_count=77 56 624 56 466 56 96 613 310 1242 562 142 196 124 59 328 121 61 69 55 53 89 75 80 160 182 52 539 81 57 327
internal_value=-1.23633e-05 0.00201147 0.00437681 0.00378508 -0.00942276 -0.00485364 0.00143013 -0.0036819 0.00420698 0.0100701 0.0210086 0.00679184 -0.00696768 -0.0040889 -0.00931147 -0.0163003 -0.0102429 -0.00489151 -0.0162016 -0.0267403 0.00530172 0.00543976 -0.00209904 -0.00440415 0.00311959 0.00903364 -0.00181442 -0.00655423 0.00376229 0.00437702
internal_weight=1748.73 1439.42 914.395 900.434 309.312 187.307 656.481 230.329 426.152 243.954 54.6551 189.298 173.346 149.433 96.3751 122.005 78.7649 64.8102 30.8992 43.2403 53.0578 33.911 525.023 364.941 160.083 114.643 324.974 176.058 148.916 94.6627
internal_count=7008 5766 3664 3608 1242 752 2631 923 1708 977 219 758 696 600 387 490 316 260 124 174 213 136 2102 1461 641 459 1301 705 596 379
is_linear=0
shrinkage=0.05


Tree=12
num_leaves=31
num_cat=0
split_feature=0 0 5 4 9 7 9 0 8 0 5 9 0 0 8 9 0 8 4 0 7 0 7 7 7 9 8 4 7 4
split_gain=10.7035 4.30952 6.62651 6.02733 5.19202 5.07462 5.79424 6.47526 6.18389 3.96991 3.76742 4.03395 6.82034 5.98031 5.57001 4.70874 2.77561 4.24193 4.92081 4.0564 5.46738 3.31944 2.69363 2.68098 3.17492 2.62991 2.49119 3.61381 2.97611 3.6859
threshold=-0.00049117696775274877 -0.00028307750988382224 1.0000000180025095e-35 0.0018026889700228923 -0.5507053039897486 -0.0021252937508212323 -1.1956497391489962 0.0019845022755865531 0.86534636772370288 -0.00057092991052237741 1.5000000000000002 -0.71585657927956914 -0.0010754477678527883 -0.0027211232542762582 0.86922962274237203 0.88237237181152806 0.0032777340869122322 0.013551291660852711 0.0066334209264874442 0.005656954864381559 0.0010057589137866458 0.00072345577255550364 -5.3763794749259242e-05 3.2558679733638044e-05 -0.00033007475709197475 -0.31012593359048768 0.99601032021649283 -0.00158363957194918 3.2558679733638044e-05 -0.0030245435239675818
decision_type=2 2 2 2 2 2 2 2 2 2 2 2 2 2 2 2 2 2 2 2 2 2 2 2 2 2 2 2 2 2
left_child=9 2 25 5 -4 -3 7 -7 -8 10 11 12 13 -1 15 -13 17 21 -19 20 -18 -5 -16 24 -6 -2 28 -28 29 -12
right_child=1 3 4 16 23 6 8 -9 -10 -11 26 14 -14 -15 22 -17 19 18 -20 -21 -22 -23 -24 -25 -26 -27 27 -29 -30 -31
leaf_value=0.020315862469262994 -0.0099960129023993951 -0.026583230613554956 -0.0011951074819247555 -0.0024693251195089371 -0.020772982679455078 0.018294581019165795 -0.0043181503645034506 -0.012337839811872038 0.0073955492576289516 0.021533169218012536 0.009631911777722579 -0.0052019481087556786 0.028705270759587211 -0.0089172194684588035 -0.024622842211288264 0.012767283138155056 -0.009111549194237123 -0.002450148830309383 -0.01711516530003564 -0.019195513434100676 0.026889724343794299 -0.031400213922009701 -0.0055394107560105474 -0.01125954557785047 -0.053784341728834797 0.01891566254970644 -0.0025104868222234175 0.022606623557742071 -0.0035314032894203373 0.02773716630880757
leaf_weight=25.183602854609489 12.489201039075853 14.980110630393026 23.974445164203644 15.223782002925871 17.688854455947872 87.634021192789078 329.86388786137104 20.469088420271873 169.80049760639668 34.827685162425041 87.744482129812241 81.108561486005783 29.685575291514397 51.647422581911087 32.233200639486313 64.372873798012733 17.443781867623329 239.11216467618942 74.860046446323395 13.215147584676741 23.704579278826714 30.869280472397804 45.457627773284912 15.721679225564001 15.933647841215135 17.719055473804474 73.132164254784584 16.706272646784782 22.668897241353989 42.833902195096016
leaf_count=101 50 60 96 61 71 351 1321 82 680 140 352 325 119 207 129 258 70 959 301 53 95 124 182 63 64 71 293 67 91 172
internal_value=-1.5883e-05 -0.00287346 -0.0125601 -0.00189059 -0.0206155 0.00121248 0.00194834 0.0123886 -0.000320687 0.00533658 0.00430722 0.000801894 0.00877364 0.000738444 -0.00300275 0.00274785 -0.0065572 -0.00814931 -0.00600582 0.00385418 0.0116552 -0.0222063 -0.0137328 -0.0297406 -0.037663 0.00686501 0.00901812 0.00230267 0.0128821 0.0157747
internal_weight=1748.31 1140.7 103.527 1037.18 73.3186 622.748 607.767 108.103 499.664 607.602 572.775 329.689 106.517 76.831 223.172 145.481 414.429 360.065 313.972 54.3635 41.1484 46.0931 77.6908 49.3442 33.6225 30.2083 243.086 89.8384 153.247 130.578
internal_count=7008 4572 415 4157 294 2494 2434 433 2001 2436 2296 1321 427 308 894 583 1663 1445 1260 218 165 185 311 198 135 121 975 360 615 524
is_linear=0
shrinkage=0.05


Tree=13
num_leaves=31
num_cat=0
split_feature=1 1 4 6 1 6 6 1 1 4 1 4 1 7 7 6 6 6 6 1 4 1 6 6 7 7 4 1 7 6
split_gain=11.6229 4.04609 5.11938 6.76414 5.02829 5.8492 4.14445 4.06082 4.62867 3.92873 5.98177 5.65658 3.91727 3.55897 7.01735 5.35408 3.29065 3.26863 3.11201 3.4542 2.36923 2.27063 5.41709 4.88446 3.81363 2.08161 1.79923 1.31531 0.807011 0.646561
threshold=0.87833321168569767 0.40077593471673634 -0.0070809204892456892 -0.024921943140618106 0.14997713021291334 0.0060138585192430856 -0.021242504989128008 0.86310801523165215 0.83049219129409035 -0.0035157968888929743 0.078405027890205092 -0.0015488114980181098 0.95735108848082529 0.00013418783229180264 0.00055038809994688027 0.010815584557626589 0.011375865432881495 0.020670015858798834 0.0073606983483776095 0.91419063577437265 0.0054393799799463691 0.97410884480383719 0.024072117970611501 0.034019016119012972 0.00095716570555613538 0.0015483445836060913 0.0013380782893350764 0.90156982718653511 0.00063404148908162623 0.025472047230885263
decision_type=2 2 2 2 2 2 2 2 2 2 2 2 2 2 2 2 2 2 2 2 2 2 2 2 2 2 2 2 2 2
left_child=1 2 4 -4 6 -6 -1 8 13 10 -5 -11 17 15 -15 -3 -8 18 -2 -20 27 22 -14 24 -23 -22 -10 -19 -28 -9
right_child=12 7 3 9 5 -7 16 29 26 11 -12 -13 21 14 -16 -17 -18 20 19 -21 25 23 -24 -25 -26 -27 28 -29 -30 -31
leaf_value=0.02183401645466819 -0.023807132960886636 0.0070740842642913887 0.036561817802590608 -0.0077706118010789638 -0.03009827779413457 0.0065833118299481229 -0.0079163379988974065 0.022913737948623655 -0.029061393230139378 -0.0046500442468876239 0.017700891679610264 0.0080692809999278071 -0.011521120138036094 0.010397511764452028 -0.0037129887390575083 -0.0063368165177325134 0.018504890810524623 -0.016562945025169824 -0.012621092036732394 0.0156860861200105 -0.0046006665998700831 -0.012989800074453554 0.031809411710878442 -0.033383260265825609 0.022867849329383114 -0.026728067432618203 -0.003054375121977565 -0.038761890427470184 -0.015770321610922667 0.0078545183315955596
leaf_weight=20.717296972870827 16.929157078266144 94.348987594246864 17.443704083561897 27.897924140095711 29.947422534227371 15.970905631780623 61.423886939883232 16.969828382134438 14.689287230372427 147.89144246280193 114.14353612065315 209.95920272171497 13.686820089817049 176.77670462429523 173.24945165216923 335.54923534393311 13.482076764106749 13.680486395955084 21.171616300940514 19.924110755324364 27.556665986776352 15.399981260299684 13.17119389772415 12.399884909391401 12.478730782866476 17.643373861908913 28.63967689871788 24.032621592283249 23.903550609946251 16.68662166595459
leaf_count=83 68 378 70 112 120 64 246 68 59 593 458 841 55 708 694 1345 54 55 85 80 111 62 53 50 50 71 115 97 96 67
internal_value=-1.78904e-05 0.00148043 0.00444191 0.00674825 -0.00394091 -0.0173651 0.00256663 -0.000731719 -0.00142181 0.00562701 0.0126438 0.00280043 -0.011083 -0.000322304 0.00340843 -0.00337236 -0.00291386 -0.0157928 -0.00641178 0.00103068 -0.0221437 -0.00103565 0.0099278 -0.00853069 0.00312331 -0.0137377 -0.0139116 -0.0314742 -0.00911913 0.0160338
internal_weight=1747.77 1539.69 658.877 517.336 141.542 45.9183 95.6233 880.813 847.157 499.892 142.041 357.851 208.075 779.924 350.026 429.898 74.906 140.938 58.0249 41.0957 82.9131 67.1366 26.858 40.2786 27.8787 45.2 67.2325 37.7131 52.5432 33.6565
internal_count=7008 6171 2641 2074 567 184 383 3530 3395 2004 570 1434 837 3125 1402 1723 300 567 233 165 334 270 108 162 112 182 270 152 211 135
is_linear=0
shrinkage=0.05


Tree=14
num_leaves=29
num_cat=0
split_feature=1 2 4 1 2 9 9 1 2 9 1 1 2 2 9 9 4 2 8 7 7 2 7 7 9 1 7 7
split_gain=10.5598 4.38522 6.27121 4.79489 3.96017 4.52128 6.766 4.70034 3.73913 3.71833 3.69607 5.201 4.11324 4.21655 3.52718 5.80136 5.47422 5.12356 3.30036 3.23717 6.44244 3.72591 2.70988 6.41026 4.76229 2.68645 2.25264 1.16542
threshold=0.87833321168569767 0.00052554944398741654 0.0045082341943480939 0.82802815771844884 0.0037613057905886431 0.75932028110736882 1.2746171747910655 0.93412180952674218 0.0013421020001493924 0.046258663614579414 0.95735108848082529 0.97824136003508422 0.0067764303446005156 0.011832780029397806 -1.3902431541124531 -1.2860256006053319 0.0029296547782874387 0.003195778670185057 0.74476109411981117 -0.00018450330866968243 -0.00036733396143333742 0.00084818414922727136 -7.7615956393180236e-05 -0.00015943503039045828 -1.9296922471511155 0.85449451720709302 0.00036093071656143825 0.00033004988711586157
decision_type=2 2 2 2 2 2 2 2 2 2 2 2 2 2 2 2 2 2 2 2 2 2 2 2 2 2 2 2
left_child=1 2 3 22 5 8 -7 27 -2 -6 12 -12 18 -14 16 -16 17 26 -11 20 -17 -21 23 -1 -24 -5 -3 -8
right_child=4 14 -4 25 9 6 7 -9 -10 10 11 -13 13 -15 15 19 -18 -19 -20 21 -22 -23 24 -25 -26 -27 -28 -29
leaf_value=0.0032445450378621636 -0.009793431936882117 -0.0023376024997075833 0.031498183038957253 -0.030572413185987336 0.017355407064507514 0.020430479359417844 -0.017636887905699016 0.0012227610607317382 -0.045868293722657487 0.013616135207721545 0.022369030240567203 -0.012318093083199588 -0.043930547823555106 -0.0054323564454859963 0.03187759535929395 0.00093215046976943242 -0.036884396136426627 -0.022980555421226609 -0.019673793527870565 -0.013979344547393175 -0.025474385542599138 0.0021284512143286134 0.03659117292733257 -0.015336332603781578 0.0061732750717763338 -0.00010956261388574585 0.022817944094313633 -0.040941127205050283
leaf_weight=579.0102155059576 12.444512456655501 23.219742313027382 18.658370390534401 15.173931166529657 15.9463544934988 13.391827911138533 13.627376258373262 17.83502508699894 20.29530456662178 14.930665776133539 18.677883625030518 22.880142822861671 17.35214471817017 12.66058002412319 12.485510483384131 56.88396318256855 16.220172986388206 22.223583087325096 12.929546549916266 38.698886707425117 37.419881761074066 371.94415009021759 12.702087491750715 49.406054571270943 258.74054138362408 13.712706819176672 12.984766259789465 14.912356570363043
leaf_count=2322 50 93 75 61 64 54 55 72 82 60 75 92 70 51 50 228 65 89 52 155 150 1490 51 198 1037 55 52 60
internal_value=-1.93979e-05 0.00140823 0.0035183 0.00291753 -0.0105718 -0.018243 -0.00966631 -0.0187108 -0.033001 -0.00427432 -0.00793126 0.00331353 -0.0160101 -0.0285505 -0.00195995 -0.000474607 -0.0120473 -0.00456355 -0.00180639 -0.00134587 -0.00965088 0.000568038 0.00357287 0.00175373 0.00774411 -0.0167663 0.00692087 -0.0309567
internal_weight=1747.37 1539.48 947.404 928.746 207.884 92.5064 59.7666 46.3748 32.7398 115.377 99.431 41.558 57.8729 30.0127 592.081 517.432 74.6483 58.4281 27.8602 504.947 94.3038 410.643 899.859 628.416 271.443 28.8866 36.2045 28.5397
internal_count=7008 6171 3799 3724 837 373 241 187 132 464 400 167 233 121 2372 2073 299 234 112 2023 378 1645 3608 2520 1088 116 145 115
is_linear=0
shrinkage=0.05


Tree=15
num_leaves=26
num_cat=0
split_feature=2 2 5 7 6 7 7 2 7 2 2 8 7 7 6 8 7 6 8 2 6 6 7 2 2
split_gain=7.48617 3.5277 3.24187 5.01896 4.36778 4.12442 7.07017 3.083 7.39587 5.43141 5.11962 5.1225 5.03994 4.03188 3.80898 4.37733 4.21273 2.87355 2.84245 2.81432 2.5608 2.65037 2.86826 6.48454 2.69145
threshold=0.00052554944398741654 0.00060723633593129389 1.0000000180025095e-35 0.0011057571919998869 -0.021242504989128008 0.00051763974177564966 0.0002955329781583134 0.0067764303446005156 0.00048786479053077237 0.0056012132796482436 0.0093600837450431591 0.48379433352133122 0.0009116352088158607 0.0019143429650577703 0.015737729386938435 0.35122928472049997 0.00049991553440489563 0.020408856686336036 0.74476109411981117 -0.006699248470266205 -0.01998819807172007 -0.0087569551999448023 0.00033004988711586157 -0.00099349163770812133 0.00014151375141502334
decision_type=2 2 2 2 2 2 2 2 2 2 2 2 2 2 2 2 2 2 2 2 2 2 2 2 2
left_child=2 -2 20 4 19 6 -6 9 -9 14 11 -10 17 -12 15 -3 -16 -11 -7 -4 -1 -22 24 -24 -23
right_child=1 7 3 -5 5 18 -8 8 10 12 13 -13 -14 -15 16 -17 -18 -19 -20 -21 21 22 23 -25 -26
leaf_value=-0.012523005860757667 -0.027769194041465439 0.010034682091425492 0.0045156542286010478 0.026980559141445589 -0.0010711388765322883 0.00067746270603300397 0.02137561013737278 -0.035441404413750641 -0.040326334582361505 0.009442264008924962 0.014388607225589271 -0.0052836775250814086 -0.006039952651460615 -0.0090655569499996681 -0.0035230271213377421 -0.003172270733602506 -0.01749402450999132 0.039459643982928339 -0.028492584958843298 0.032714471875873181 0.028827746017069934 0.0069266022031901344 0.023079121256226919 -0.019457118852359529 0.022160954544774725
leaf_weight=14.200707852840422 13.967794358730314 89.09877735376358 21.466555967926979 17.16396164894104 562.69055150449276 12.970203593373297 36.401311829686165 22.618576943874359 15.175372615456579 17.225757449865341 39.115007981657982 31.56699725985527 20.196090698242188 32.58770027756691 202.00240390002728 205.14093652367592 73.69675575196743 16.445400252938271 20.695306107401848 15.172422394156454 14.460042864084242 180.09175385534763 12.461595669388769 25.669732198119164 34.649577394127846
leaf_count=57 56 357 86 69 2257 52 146 91 61 69 157 127 81 131 811 822 296 66 83 61 58 722 50 103 139
internal_value=-2.26647e-05 -0.00367214 0.00290896 0.00104368 0.000331919 -0.000643789 0.00031776 -0.00318987 -0.00984583 -0.00166339 -0.00466038 -0.0173717 0.0133496 0.00368223 -0.00311198 0.000830436 -0.00732539 0.0249626 -0.0174147 0.0168847 0.00742024 0.00854098 0.00725224 -0.00519365 0.00949924
internal_weight=1746.93 778.838 968.094 686.56 669.396 632.757 599.092 764.87 141.064 623.806 118.445 46.7424 53.8672 71.7027 569.939 294.24 275.699 33.6712 33.6655 36.639 281.533 267.333 252.873 38.1313 214.741
internal_count=7008 3125 3883 2754 2685 2538 2403 3069 567 2502 476 188 216 288 2286 1179 1107 135 135 147 1129 1072 1014 153 861
is_linear=0
shrinkage=0.05


Tree=16
num_leaves=31
num_cat=0
split_feature=1 0 0 7 1 7 0 6 1 0 6 0 4 7 6 6 3 6 7 6 6 6 6 0 0 0 4 6 0 1
split_gain=9.19001 5.56986 5.0957 5.2514 5.16177 5.01475 4.01872 5.93619 5.18598 3.76933 6.77363 5.16181 3.50889 5.27227 3.52744 3.49211 3.55261 5.71487 3.1434 3.05986 2.78305 5.41643 2.94763 2.63359 2.47817 2.42691 7.18728 2.15713 1.83799 1.59127
threshold=0.87833321168569767 -0.00049117696775274877 -0.00028307750988382224 6.6701784668824501e-05 0.12530699683842558 -0.00054079593733696678 0.00044203203919579442 0.047335952347879774 0.21160589613745731 0.0019367258885217844 0.032667406943410117 0.0011199179058745126 0.0045082341943480939 0.001031914047846177 0.01264331087884722 0.040973712837806028 1.0000000180025095e-35 0.0063412662175867107 0.00095716570555613538 0.046517035580453135 0.0218410864554489 0.03242172019700551 0.013291255033367448 0.0029367804248678912 -0.00040519952976880708 0.0026391321823346918 0.0083429654986564312 0.015113068831002106 0.00013259467357229496 0.9374049973794748
decision_type=2 2 2 2 2 2 2 2 2 2 2 2 2 2 2 2 2 2 2 2 2 2 2 2 2 2 2 2 2 2
left_child=1 15 3 5 -4 -3 7 -6 -8 11 25 12 14 -14 -2 16 20 -18 29 -17 22 -22 -1 -12 -5 -11 -27 -7 -16 -13
right_child=9 2 4 24 6 27 8 -9 -10 10 23 18 13 -15 28 19 17 -19 -20 -21 21 -23 -24 -25 -26 26 -28 -29 -30 -31
leaf_value=0.0031323800088236529 0.00066685353037842035 0.00020047809071401161 0.022374804355385712 0.018171115284283317 0.0024598823615536742 -0.017622268521088367 -0.018703895588114562 0.035597682695313347 -0.0015679708804539002 0.030972942700060686 -0.033824874225580552 -0.053382153603569932 0.020371041252943495 -0.013872713222915329 -0.0094548921079695928 0.03626188692351006 0.032056414779397864 -0.0019563709162231501 -0.0099198499950051214 0.0088930561827228055 0.016443816405220142 -0.0051785090083213449 -0.0068810433019795836 -0.0042140798893483137 -0.0076044213232562751 -0.020897570377937186 0.030281592724989665 -0.042071906945545919 -0.033843876466776411 -0.023662564530878324
leaf_weight=273.67621344327927 19.36860927939415 19.431886672973633 24.402914017438889 14.974836140871046 292.08212324976921 21.952519938349724 47.920537903904915 13.224029526114462 467.60398930311203 12.473438516259192 12.856029093265535 12.552536174654962 20.406335726380348 22.599435746669769 13.883061587810515 14.715608209371565 26.264544263482094 21.897691205143929 14.61303600668907 34.142202481627464 83.009598255157471 43.158333539962769 99.261188939213753 18.111118018627167 21.215512856841087 12.941374912858011 12.469100117683409 20.114883691072464 22.992676243185997 12.315889999270437
leaf_count=1098 78 78 98 60 1170 88 192 53 1874 50 52 51 82 91 56 59 106 88 59 137 333 173 398 73 85 52 50 81 93 50
internal_value=-2.05265e-05 0.0013106 -0.00107685 -0.0118288 0.000172427 -0.0206198 -0.000507978 0.00402307 -0.00320365 -0.00987267 -0.000220143 -0.0145915 -0.00828387 0.00235608 -0.0164058 0.00509082 0.00391681 0.016765 -0.0297279 0.0177986 0.00263595 0.00902558 0.000442557 -0.017337 0.00312835 0.013729 0.00422275 -0.0301346 -0.0252859 -0.0403407
internal_weight=1746.63 1539.05 942.923 97.6896 845.234 61.4993 820.831 305.306 515.525 207.583 68.8511 138.732 99.2501 43.0058 56.2443 596.125 547.268 48.1622 39.4815 48.8578 499.105 126.168 372.937 30.9671 36.1903 37.8839 25.4105 42.0674 36.8757 24.8684
internal_count=7008 6171 3779 392 3387 247 3289 1223 2066 837 277 560 400 173 227 2392 2196 194 160 196 2002 506 1496 125 145 152 102 169 149 101
is_linear=0
shrinkage=0.05


Tree=17
num_leaves=31
num_cat=0
split_feature=1 0 3 1 7 7 7 0 0 8 5 0 1 1 0 0 1 7 1 5 7 3 0 8 8 0 8 8 1 0
split_gain=8.52722 4.90648 5.90026 4.36506 8.61269 3.81653 3.91124 5.34873 5.66432 4.62961 4.46941 3.43482 7.23699 4.125 6.72418 8.13884 6.15618 3.87793 4.70635 3.51869 6.88953 4.7011 3.42043 3.27775 2.51328 3.53934 2.35966 1.8844 1.8566 0.885602
threshold=0.83049219129409035 0.0020815955471684693 1.0000000180025095e-35 0.52372073512135542 -7.7615956393180236e-05 0.0023777572110989698 0.0015483445836060913 0.0019367258885217844 0.00055349067732168866 0.77954022254557354 1.0000000180025095e-35 -0.0014658216454138671 0.77036035636211453 0.3978634347506832 0.0010782909244158036 0.00044203203919579442 0.2414813492191121 0.00013418783229180264 0.49166599935655214 1.5000000000000002 -0.0007087659797322905 1.0000000180025095e-35 0.0029367804248678912 0.51450165612489018 0.68350346048321431 0.0027349435287825634 0.93419914152959427 0.65976359881436919 0.33901899015040482 0.0029367804248678912
decision_type=2 2 2 2 2 2 2 2 2 2 2 2 2 2 2 2 2 2 2 2 2 2 2 2 2 2 2 2 2 2
left_child=1 11 3 4 28 6 7 8 10 -10 -2 12 19 14 15 -13 -16 26 -19 21 -21 -1 -5 -6 25 -9 -15 -8 -3 -26
right_child=5 2 -4 22 23 -7 27 24 9 -11 -12 13 -14 17 16 -17 -18 18 -20 20 -22 -23 -24 -25 29 -27 -28 -29 -30 -31
leaf_value=-0.0036407990699192268 0.0056823266938874975 -0.031185496337274129 0.020223300226527779 -0.037395533874154729 0.031482429468444727 0.01436400533582383 -0.009722681632120856 0.035337179109900758 -0.029233613471279292 -0.0064568116938728999 -0.014507845171767265 0.0061602475557224375 0.039391158657593857 -0.0078654012545003298 0.0016356929100301209 -0.011798491589628347 0.034447518539690386 -0.012911223095415553 0.005941042799761302 0.0016679921120183472 0.025128318521896894 0.024684011736585337 -0.0096125056291416246 0 -0.013344383961243038 0.00034318638868288556 0.0011157136371346408 -0.035163818970916944 -0.0062716941311009057 0.0045607558124631199
leaf_weight=121.48464903235435 64.436362773180008 18.687442943453789 15.473802223801611 21.941296100616455 14.479122981429098 17.637533381581306 14.16535112261772 12.937326684594156 52.491169020533562 40.624785736203194 46.023056760430336 297.77891476452351 15.694715216755865 232.65102748572826 25.447671383619308 78.885907530784607 32.947839379310608 37.937087744474411 217.38499955832958 78.078099891543388 51.971106320619583 15.635174065828322 24.456050381064415 18.218684494495392 12.409968405961992 15.654934659600256 104.80307465791702 18.810240879654884 13.987097114324568 12.919155314564703
leaf_count=487 259 75 62 88 58 71 57 52 213 164 185 1195 63 933 102 316 132 152 871 313 209 63 98 73 50 63 420 76 56 52
internal_value=-2.12431e-05 0.00159447 -0.00773237 -0.011792 -0.00327218 -0.00755868 -0.0089517 -0.00678972 -0.0104992 -0.0195238 -0.00273976 0.00250894 0.00738129 0.00115732 0.00485185 0.00236458 0.0205012 -0.00154941 0.00308093 0.00534237 0.0112017 -0.000219513 -0.0233684 0.014564 0.00706019 0.0170052 -0.00506631 -0.02499 -0.021172 -0.00419558
internal_weight=1746.05 1437.94 127.243 111.77 65.3723 308.11 290.472 257.497 203.575 93.116 110.459 1310.7 282.864 1027.84 435.06 376.665 58.3955 592.776 255.322 267.169 130.049 137.12 46.3973 32.6978 53.9214 28.5923 337.454 32.9756 32.6745 25.3291
internal_count=7008 5766 510 448 262 1242 1171 1038 821 377 444 5256 1135 4121 1745 1511 234 2376 1023 1072 522 550 186 131 217 115 1353 133 131 102
is_linear=0
shrinkage=0.05


Tree=18
num_leaves=31
num_cat=0
split_feature=1 0 5 9 9 0 0 0 0 1 6 6 9 6 1 9 6 6 1 6 0 9 6 0 9 6 7 6 1 5
split_gain=7.77975 4.61289 5.13372 7.6476 9.75749 5.94458 5.89367 5.34278 4.88853 4.88639 4.6333 7.31664 5.55223 3.89317 3.60251 3.5497 5.49035 3.21884 3.19241 2.83233 2.80574 5.00815 4.18985 3.63544 6.12966 2.68761 3.00243 2.77095 3.02631 3.00913
threshold=0.87833321168569767 -0.00049117696775274877 1.0000000180025095e-35 0.065700954614984639 0.49334071228011572 0.00046840956164773134 0.0010576375522861616 0.00029914489827909124 -0.00039321375752449089 0.20050661029760372 -0.0071442994613939515 -0.018931865759514669 1.1714744280753724 0.0094889753002239553 0.26748348851535403 2.3138894543390491 0.041652828275883923 0.040973712837806028 0.95325629537593304 0.046517035580453135 0.0020283016548079407 1.9558463337351408 0.024940170729761891 0.0015029729609802314 -0.054779048680698599 0.034828795804750304 -0.00038135855988799224 0.025472047230885263 0.71984168746328325 1.5000000000000002
decision_type=2 2 2 2 2 2 2 2 2 2 2 2 2 2 2 2 2 2 2 2 2 2 2 2 2 2 2 2 2 2
left_child=1 17 5 8 7 9 -6 -5 -4 -3 11 -7 -12 -10 -11 20 18 25 -17 -19 21 23 -22 24 -2 27 -27 29 -29 -1
right_child=15 2 3 4 6 10 -8 -9 13 14 12 -13 -14 -15 -16 16 -18 19 -20 -21 22 -23 -24 -25 -26 26 -28 28 -30 -31
leaf_value=-0.00082427886920779169 -0.029544739331588396 0.033293261786102007 -0.021831892566855759 -0.020571764585553255 -0.010748196373432699 -0.0074499585716715239 0.022099663250764671 -0.061780693934585296 0.011187687484271682 -0.016611139914933043 -0.0073754504751539626 0.026256298571194783 0.0067184790986963743 -0.0067704770071020512 0.0084078040108098977 0 -0.022672519982777334 0.03462610327061981 0.03169523708408873 0.0082871252772560074 0.017249301705341717 -0.041817449324038948 -0.013726067840985302 -0.036208161807767279 -0.00031437479570578367 -0.027446007572050807 0.0046559281899735891 0.020785182041690178 -0.0015010064129278231 0.0073409609994589398
leaf_weight=246.21225167810917 23.706976652145386 17.668999895453453 17.944515839219093 24.439850330352783 113.91085375845432 28.910027652978897 14.471546843647955 12.477780938148497 90.330356404185295 14.722634062170981 273.954918384552 33.903650373220444 92.476094454526901 43.902718007564545 163.45907959342003 17.103257939219478 13.034996971487997 14.690416753292082 13.928854718804358 34.121853709220886 16.96282784640789 16.039519295096397 26.745488882064819 12.779036492109297 66.82084809243679 13.48058442771435 13.71674908697605 46.337924048304558 21.677605867385864 205.53936479985714
leaf_count=988 96 71 72 98 457 116 58 50 362 59 1098 136 371 176 655 69 53 59 56 137 68 65 108 52 270 54 55 186 87 826
internal_value=-1.906e-05 0.00120478 -0.000967785 -0.00613861 -0.0135549 0.00165603 -0.00686468 -0.0358938 0.00192044 0.00885504 -0.00162997 0.010791 -0.00379636 0.00527062 0.00623149 -0.009095 0.0033476 0.00464622 0.0148 0.0168504 -0.0124881 -0.0164338 -0.00147602 -0.0120816 -0.00826287 0.00351921 -0.0114874 0.00433459 0.0136909 0.00288773
internal_weight=1745.47 1538.35 942.573 317.478 165.3 625.095 128.382 36.9176 152.178 195.851 429.245 62.8137 366.431 134.233 178.182 207.122 44.0671 595.777 31.0321 48.8123 163.055 119.346 43.7083 103.307 90.5278 546.964 27.1973 519.767 68.0155 451.752
internal_count=7008 6171 3779 1273 663 2506 515 148 610 785 1721 252 1469 538 714 837 178 2392 125 196 659 483 176 418 366 2196 109 2087 273 1814
is_linear=0
shrinkage=0.05


Tree=19
num_leaves=23
num_cat=0
split_feature=1 7 7 3 1 7 4 5 6 7 7 1 6 6 7 7 1 1 4 4 1 6
split_gain=7.16638 3.44074 3.64688 3.35746 4.71801 4.07603 2.95168 2.58628 2.47117 3.56031 4.38403 3.18815 2.37041 4.10589 2.2847 5.39674 3.88121 2.08535 1.91621 3.22436 1.71574 1.01092
threshold=0.83049219129409035 0.0023777572110989698 0.0019143429650577703 1.0000000180025095e-35 0.17776676456767315 -0.00035295550283303889 0.00057579337194857427 1.0000000180025095e-35 0.024491608424299895 1.1798752327565239e-05 0.00079756117980269066 0.95735108848082529 0.049356908658772743 0.046517035580453135 0.00013418783229180264 0.00055038809994688027 0.42311821307671943 0.97824136003508422 -0.00033534811587265784 0.0033619323825981877 0.90156982718653511 0.0097043441802030801
decision_type=2 2 2 2 2 2 2 2 2 2 2 2 2 2 2 2 2 2 2 2 2 2
left_child=3 2 8 12 -5 -6 21 -8 9 -2 -11 20 13 14 16 -16 -1 -13 -14 -20 -10 -7
right_child=1 -3 -4 4 5 6 7 -9 11 10 -12 17 18 -15 15 -17 -18 -19 19 -21 -22 -23
leaf_value=0.0018983054613716504 0.022214711793740113 0.013870218176553857 -0.031786964002363291 0.029265604023903172 -0.015382303128716204 0.011544236604212279 0.0084434171287105005 -0.016897005444513068 -0.010477902179363943 -0.011599676510878914 0.0072879437122860607 0.0163268965036641 0.022288398722856973 -0.026464349267334909 0.0091481268503729226 -0.0023028287567111146 -0.0050200677973700888 -0.0094309861627945024 -0.009311148007737486 0.022031748859995433 -0.024291460153063018 0.029616340853397944
leaf_weight=494.02783569693565 12.44239531457424 17.635994702577591 14.782238304615019 22.980047017335892 19.680439472198486 21.866415560245514 32.184161931276321 13.433748185634611 63.7247534096241 83.805613607168198 47.00341771543026 13.663157626986505 21.157904401421547 13.204729229211805 212.08077421784401 197.31811429560184 341.80850613117218 15.798762023448942 19.930331990122795 12.44000270962715 38.741094022989273 15.18398769199848
leaf_count=1982 50 71 60 93 79 88 129 54 257 338 189 55 85 53 850 791 1371 64 80 50 158 61
internal_value=-2.13016e-05 -0.00693788 -0.00826397 0.00145924 0.00924781 0.00446521 0.00937734 0.000671429 -0.00687172 -0.00225476 -0.00477108 -0.0117927 0.000704934 0.000258425 0.000566819 0.00362476 -0.00092755 0.0024941 0.0109133 0.00288344 -0.0159333 0.0196656
internal_weight=1744.89 307.597 289.961 1437.3 125.329 102.349 82.6683 45.6179 275.179 143.251 130.809 131.928 1311.97 1258.44 1245.24 409.399 835.836 29.4619 53.5282 32.3703 102.466 37.0504
internal_count=7008 1242 1171 5766 504 411 332 183 1111 577 527 534 5262 5047 4994 1641 3353 119 215 130 415 149
is_linear=0
shrinkage=0.05


Tree=20
num_leaves=27
num_cat=0
split_feature=10 2 6 6 10 10 10 8 8 2 6 2 2 6 2 8 2 8 10 2 10 8 8 10 2 8
split_gain=5.82198 6.78087 6.66852 5.74801 5.07634 5.28992 4.77396 5.67048 5.45092 4.58049 4.69797 6.0866 4.4007 4.25988 3.53101 3.43384 3.3879 2.88168 2.5505 7.24157 5.72865 2.40969 2.19113 2.42141 1.78144 0.276302
threshold=-0.0018511332953564106 -0.0032103177122370092 0.045620172171965227 0.034828795804750304 0.00031312718313936122 0.00078904405244129016 -0.0028143939401591984 0.77456380803457037 0.98089379731967508 -0.0026518812492072326 0.03242172019700551 0.0011828893179823832 -0.0001056965334950699 -0.048192179686630678 0.0035777757667092573 0.25937903478548918 0.00077689824278970321 0.5782774735530235 0.0043034718070217312 0.0067764303446005156 0.003951150508016533 0.16775916558002027 0.5708375493145913 -7.7901674814084818e-05 -0.0039156152859343698 0.58281332966016397
decision_type=2 2 2 2 2 2 2 2 2 2 2 2 2 2 2 2 2 2 2 2 2 2 2 2 2 2
left_child=2 21 3 6 9 12 13 15 -9 -3 11 -11 -6 -1 -15 -8 -12 -14 20 -20 -7 -2 -23 -24 -5 -4
right_child=1 4 25 24 5 18 7 8 -10 10 16 -13 17 14 -16 -17 -18 -19 19 -21 -22 22 23 -25 -26 -27
leaf_value=0.028980888357284976 -0.0021604324300914064 -0.036816705564504719 0.035667476189258591 -0.030180470524666103 0.030456679682946852 -0.0032038070847470661 0.0089189198096429854 -0.025829429658909116 0.011543326259868007 -0.00028203730449225179 -0.034369059476261836 -0.019206245038793309 -0.0084410091522697534 0.0017326056385652826 -0.023836121385068361 0.033492300588902457 -0.0047822602111378398 0.014891736021863939 0.0062977897163090856 -0.0087715970620999006 -0.026995223973376271 0.037942695576995908 -0.0034864197720091889 0.026075382875724046 -0.0066795686285123328 0.019535570310362658
leaf_weight=12.945221424102781 13.929723277688025 12.693696007132528 12.417156323790552 13.45109288394451 21.449553996324539 356.0722178965807 26.14662766456604 13.203780636191366 30.153996825218201 197.22800855338573 23.901545643806458 53.366079077124596 24.410089537501335 394.73597611486912 12.966850951313971 35.065823927521706 17.135531112551689 26.428049266338348 225.25151319801807 122.00449386239052 26.381348818540573 12.921131297945974 12.439531609416006 13.40783302485943 21.672900259494781 12.695088461041449
leaf_count=52 56 51 50 54 86 1431 105 53 121 791 96 214 98 1585 52 141 69 106 905 492 106 52 50 54 87 51
internal_value=-1.91051e-05 -0.00207456 0.00403814 0.00287185 -0.00291814 -0.000821316 0.00419916 0.013714 -5.08322e-05 -0.0084068 -0.00703154 -0.0043923 0.0119761 0.00179506 0.000850835 0.0233883 -0.0225413 0.00364528 -0.00211058 0.000978988 -0.00492408 0.0152665 0.0215507 0.012062 -0.0164042 0.0287642
internal_weight=1744.47 1159.02 585.455 560.342 1106.32 801.997 525.218 104.57 43.3578 304.325 291.631 250.594 72.2877 420.648 407.703 61.2125 41.0371 50.8381 729.71 347.256 382.454 52.6982 38.7685 25.8474 35.124 25.1122
internal_count=7008 4657 2351 2250 4445 3224 2109 420 174 1221 1170 1005 290 1689 1637 246 165 204 2934 1397 1537 212 156 104 141 101
is_linear=0
shrinkage=0.05


Tree=21
num_leaves=28
num_cat=0
split_feature=0 6 9 0 6 9 9 6 0 2 2 10 6 0 10 0 8 0 0 0 6 0 9 2 6 9 2
split_gain=6.44605 5.66137 3.89839 3.83063 3.82533 3.6795 9.12934 6.52258 7.19651 4.56081 4.19145 3.34009 9.39747 3.8674 3.31871 4.28287 3.66207 3.30084 3.28684 6.34568 5.09154 4.28732 2.94067 4.40513 2.31777 2.12674 1.76125
threshold=-0.00049117696775274877 0.02472345176335931 -0.69678814681173529 -0.00057092991052237741 0.022224763124055281 0.52645198176775876 0.065700954614984639 0.014630822187849305 0.00065169854587709974 0.00028617431291777523 -0.00041518274422003282 -0.0017061810097622752 0.045620172171965227 0.0011911253638740018 0.0014039908455755203 -0.00010308422451260622 0.85977071337411926 -0.00060399198509347707 -0.00068240732694818662 -0.00079837662501247564 0.013419502968479805 -0.0010472908974230586 0.66255040211407468 0.00064250651276753789 0.019163405885013488 0.71188995753749962 -0.0007334435334914734
decision_type=2 2 2 2 2 2 2 2 2 2 2 2 2 2 2 2 2 2 2 2 2 2 2 2 2 2 2
left_child=3 4 -3 17 5 6 9 8 -7 -2 -8 12 13 -4 15 -13 -16 18 19 21 -20 -1 -6 -24 -9 -5 -21
right_child=1 2 11 25 22 7 10 24 -10 -11 -12 14 -14 -15 16 -17 -18 -19 20 26 -22 -23 23 -25 -26 -27 -28
leaf_value=0.002176998583517234 0.0053843830749674788 0.016324273455534562 -0.018814830970848059 0.0094853884765357041 0.030700317927180129 -0.00031289205374673975 -0.032002342076612456 -0.010611933357409077 0.022465786609030661 -0.0049089628916756051 -0.0093804052172006113 -0.042546484942597745 0.035334556632103435 0.012719886325709024 -0.013723403951145786 -0.01344704641481371 0.0007688559426871519 -0.020025310487237533 0.039237964544692513 -0.005557160560044341 0.0010464852423752626 0.014606347743973054 0.024186988495822029 -0.012248810367134912 0.0047097157902873067 0.035628095488274433 -0.026548999438802064
leaf_weight=397.33883726596832 199.617874532938 14.909570366144179 32.357801198959351 21.828610107302666 15.699539616703985 66.855376526713371 31.433053359389305 67.424847513437271 70.032708570361137 231.07680614292622 61.822830125689507 16.366195648908615 14.438445210456846 12.715776294469832 103.84696969389915 57.13077200949192 73.365241080522537 13.946030288934706 15.162389293313025 22.630390301346779 19.699043959379196 83.607269093394279 14.193648993968965 17.181901842355728 37.351552814245224 12.892683684825895 19.183314666152
leaf_count=1596 801 60 130 88 63 268 126 271 281 927 248 66 58 51 420 230 296 56 61 91 79 336 57 69 150 52 77
internal_value=-1.77931e-05 -0.00223909 -0.00780415 0.0041395 0 -0.000863812 -0.00322181 0.00422014 0.011383 -0.000125211 -0.0173171 -0.00902858 0.00152618 -0.00972701 -0.01155 -0.0204781 -0.00772495 0.0031304 0.00375328 0.00273183 0.0184276 0.0043739 0.0136758 0.00431752 -0.00510979 0.0200583 -0.0156998
internal_weight=1744.11 1137.82 325.131 606.289 812.69 765.615 523.951 241.664 136.888 430.695 93.2559 310.221 59.512 45.0736 250.709 73.497 177.212 571.567 557.621 522.76 34.8614 480.946 47.0751 31.3756 104.776 34.7213 41.8137
internal_count=7008 4572 1311 2436 3261 3072 2102 970 549 1728 374 1251 239 181 1012 296 716 2296 2240 2100 140 1932 189 126 421 140 168
is_linear=0
shrinkage=0.05


Tree=22
num_leaves=26
num_cat=0
split_feature=1 9 7 8 8 9 1 1 3 9 8 9 8 8 7 9 9 1 7 7 8 1 1 8 1
split_gain=6.05752 3.24326 5.39199 3.07521 5.68507 3.49429 3.05084 4.85193 3.02019 4.679 5.51567 3.14521 2.91224 4.83933 3.88194 2.78463 6.67691 2.80748 2.19004 2.70119 1.8591 1.61837 1.60896 1.48603 1.153
threshold=0.87833321168569767 2.3138894543390491 0.00085554144731958678 0.29055980757432553 0.65976359881436919 1.4584893531085104 0.86310801523165215 0.83049219129409035 1.0000000180025095e-35 -0.07357401386915309 0.98583143938545126 0.41198403384230858 0.77226380348385504 0.24156480188249865 0.00062383795334079132 1.1337091410354636 1.2895240287556857 0.62548455522881552 0.00093440909909655115 0.00149444636696494 0.48691007308882556 0.93412180952674218 0.94233276320644821 0.96426522306658224 0.90156982718653511
decision_type=2 2 2 2 2 2 2 2 2 2 2 2 2 2 2 2 2 2 2 2 2 2 2 2 2
left_child=6 3 -3 22 5 -5 7 8 15 10 -10 -11 13 -9 -14 17 -17 -1 21 -20 -8 -6 24 -4 -2
right_child=1 2 23 4 18 -7 20 12 9 11 -12 -13 14 -15 -16 16 -18 -19 19 -21 -22 -23 -24 -25 -26
leaf_value=0.00087062691034018799 -0.015903084387228174 0.028994755664426209 0.0032449119386256161 0.022761652969539081 -0.011606118542885895 -0.0080337784616711042 0.028953627483158259 0 0.022792263003861536 -0.022172734055765562 -0.0059189245917881141 0.0057386426969927174 0.016976492891154715 -0.035335881849811339 -0.019179118652824737 0.020241536716265437 0.0008327818751289386 -0.0053374991119435273 0.0085131689830421475 -0.019594880050820631 0.0048992568343802292 -0.030661813765312202 -0.0074397235108521935 -0.01812857496651777 -0.038222343020493765
leaf_weight=832.35177372395992 13.865720167756082 13.573295325040815 14.822070330381393 20.278093174099922 27.857042863965034 15.227581247687338 14.198707818984984 16.393607407808304 62.973999157547951 15.449840068817137 21.830927580595016 24.905467629432678 14.908584028482439 22.789380952715874 12.919073626399038 57.064336746931076 190.06607739627361 231.84079726040363 18.618487417697906 14.054244264960287 19.415037989616394 22.133856177330017 14.283498078584669 15.571129575371742 16.209771648049355
leaf_count=3340 56 55 60 82 113 62 57 66 254 62 88 100 60 92 52 229 763 930 75 57 78 90 58 63 66
internal_value=-1.52011e-05 -0.00803728 0.00385797 -0.0112896 -0.00690831 0.00955895 0.00106376 0.000721902 0.00134198 0.00873415 0.0153602 -0.00510396 -0.0123214 -0.0209317 0 0.000626506 0.00539808 -0.000480898 -0.0140708 -0.00365193 0.0157474 -0.0205771 -0.0224413 -0.00777461 -0.0289363
internal_weight=1743.6 206.495 43.9665 162.528 118.169 35.5057 1537.11 1503.49 1436.48 125.16 84.8049 40.3553 67.0106 39.183 27.8277 1311.32 247.13 1064.19 82.6636 32.6727 33.6137 49.9909 44.359 30.3932 30.0755
internal_count=7008 837 178 659 479 144 6171 6036 5766 504 342 162 270 158 112 5262 992 4270 335 132 135 203 180 123 122
is_linear=0
shrinkage=0.05


Tree=23
num_leaves=24
num_cat=0
split_feature=1 10 1 10 10 1 9 9 9 1 1 2 4 3 9 10 10 2 1 2 2 1 10
split_gain=5.50491 3.67377 4.98566 5.5661 3.9678 3.89981 3.99779 3.17039 2.98047 2.77461 4.40268 3.118 6.26858 4.12903 3.07821 5.75493 4.15538 2.73946 2.57233 2.41947 1.71592 1.7079 1.3209
threshold=0.87833321168569767 0.0034915673461315415 0.89218457244241445 0.0084951970021216478 0.011039320550872868 0.92075194849004049 1.0547473154334774 1.3026066845604667 2.3138894543390491 0.86310801523165215 0.83049219129409035 0.00052554944398741654 0.004273415934358816 1.0000000180025095e-35 -1.3902431541124531 0.0054040440823623923 0.0067945403264283452 0.0022368226858542344 0.95735108848082529 0.0061046988354414031 0.0064396772159113222 0.8448237266431452 0.003416097224791748
decision_type=2 2 2 2 2 2 2 2 2 2 2 2 2 2 2 2 2 2 2 2 2 2 2
left_child=9 5 -3 8 -5 7 -7 -2 20 10 11 12 13 -1 15 -13 -16 21 -6 -19 -4 -12 -11
right_child=1 2 3 4 18 6 -8 -9 -10 22 17 14 -14 -15 16 -17 -18 19 -20 -21 -22 -23 -24
leaf_value=0.0014948819777575737 0.00666281499536483 -0.030004094167038406 0.0089646215687658164 -0.028627217354884223 -0.012651893348630788 -0.052082467610337829 -0.012657482831768594 -0.021651675556783892 0.02983726949938072 0.0037943438054638084 -0.034214815853846732 -0.003959664449445047 0.035295136993584789 0.014016539307992204 -0.0022402073896281194 -0.038404469534584908 0.011162076246966836 0.011136565662901563 0.013025369184548536 -0.016159471210230425 -0.011315516501387344 -0.011006914949453677 0.024110586127982128
leaf_weight=827.44711926579475 20.227558717131615 14.318125411868094 43.351862624287605 19.993190616369247 21.195736974477768 12.10546298325062 15.194750025868414 17.405264303088188 13.616275399923323 15.934012919664381 14.133990064263342 59.847143337130547 13.850314334034918 70.754714921116829 382.92625626921654 14.451274052262304 67.076592028141022 17.651429474353794 16.343970239162445 13.349049821496008 12.536178469657896 21.811331912875175 17.685092359781265
leaf_count=3322 82 58 175 81 86 50 62 71 55 64 57 240 56 286 1535 58 269 71 66 54 51 88 71
internal_value=-1.66613e-05 -0.0076684 -0.00305539 0.000153514 -0.0112054 -0.0174362 -0.0315386 -0.00652475 0.00965244 0.00101144 0.000685201 0.00127581 0.0030429 0.00250131 -0.00178856 -0.0111467 -0.000211081 -0.0117454 -0.00129494 -0.000598747 0.00420877 -0.0209469 0.0150137
internal_weight=1743.21 206.288 141.355 127.037 57.5329 64.933 27.3002 37.6328 69.5043 1536.92 1503.3 1436.35 912.052 898.202 524.301 74.2984 450.003 66.9458 37.5397 31.0005 55.888 35.9453 33.6191
internal_count=7008 837 572 514 233 265 112 153 281 6171 6036 5766 3664 3608 2102 298 1804 270 152 125 226 145 135
is_linear=0
shrinkage=0.05


Tree=24
num_leaves=29
num_cat=0
split_feature=0 1 7 7 5 0 0 1 1 7 1 0 0 0 7 7 0 0 5 3 1 3 7 1 0 4 1 5
split_gain=5.5099 4.72657 5.37579 4.48791 4.44154 4.2307 4.55101 4.85055 4.43056 4.13833 4.4564 3.7202 3.5081 3.11466 3.06716 3.82508 3.15687 3.02301 3.21557 8.08202 6.99316 3.6015 3.67402 3.21501 2.42949 2.23172 1.4582 1.02303
threshold=-0.00049117696775274877 0.42630740941334683 -0.0021252937508212323 -0.0015461739898419305 1.0000000180025095e-35 0.00055349067732168866 0.0032777340869122322 0.81815795552459358 0.50456154715740531 -0.0012004094183575421 0.13316004387339633 0.00040765532527953235 -0.00057092991052237741 0.005656954864381559 -0.00045304338979448568 -0.00068124508911624295 -0.00023291807477210377 -0.00060399198509347707 1.5000000000000002 -1.0000000180025095e-35 0.43014135171636997 -1.0000000180025095e-35 -0.00017193856696435568 0.30861897889866668 0.00023265479052569929 -0.0073581591454307529 0.65488565999023041 1.5000000000000002
decision_type=2 2 2 2 2 2 2 2 2 2 2 2 2 2 2 2 2 2 2 2 2 2 2 2 2 2 2 2
left_child=12 2 -2 -4 5 8 7 -7 -3 -5 -11 -10 17 -8 15 -6 27 18 21 23 -21 22 -1 -20 -18 -23 -14 -16
right_child=1 4 3 9 14 6 13 -9 11 10 -12 -13 26 -15 16 -17 24 -19 19 20 -22 25 -24 -25 -26 -27 -28 -29
leaf_value=0.0015562779885790522 -0.026965928673124764 -0.020388093984482266 0.028594815623626153 -0.021359992947852957 -0.0097553667240156666 -0.0019275500391572468 0.013314103368034886 -0.014094714116318933 0.0029588557059233543 0.022335202803063232 0.0018194494802077469 0.022441922807139431 0.010072317371164907 -0.012612408804495821 -0.025282524535314984 -0.044047450937623335 0.0038445945204938167 -0.019294333083020188 0.049982814545386708 -0.0017261716054460703 0.017746165860852273 -0.01262080165799314 -0.027971450585982684 0.013673332451571502 -0.011505554033308956 0.0035513329046150087 0.032098785571651876 -0.0075038295648733018
leaf_weight=19.925837591290474 13.946023061871527 15.720105350017546 16.170158237218857 16.439150780439377 20.663904070854187 182.58518709242344 47.714683055877686 149.78505007922649 134.41700650751591 28.059081882238388 311.27745439112186 29.341574415564537 21.763090863823891 14.146335095167158 26.500449001789093 13.912705793976782 56.060189768671989 13.951078370213507 13.438587442040445 143.61625581979752 66.549266383051872 22.169492602348328 20.434648081660271 13.176713436841963 45.717600807547569 257.94578558206558 12.885186240077017 14.379901289939879
leaf_count=80 56 63 65 66 83 732 192 609 540 113 1248 118 88 57 107 56 225 56 54 578 268 89 82 53 184 1036 52 58
internal_value=-1.9451e-05 -0.00207433 0.00241064 0.00359487 -0.00438583 -0.00222872 -0.00512758 -0.0074516 0.00410415 0.00236763 0.00359119 0.00659512 0.00382517 0.00719938 -0.0112887 -0.0245444 -0.00789254 0.00285972 0.00345688 0.00786284 0.00447094 0.000171687 -0.0135876 0.0333338 -0.00304675 0.00221327 0.0190745 -0.0194767
internal_weight=1742.69 1136.84 385.892 371.946 750.945 573.71 394.231 332.37 179.479 355.776 339.337 163.759 605.856 61.861 177.235 34.5766 142.658 571.208 557.257 236.781 210.166 320.476 40.3605 26.6153 101.778 280.115 34.6483 40.8804
internal_count=7008 4572 1548 1492 3024 2311 1590 1341 721 1427 1361 658 2436 249 713 139 574 2296 2240 953 846 1287 162 107 409 1125 140 165
is_linear=0
shrinkage=0.05


Tree=25
num_leaves=24
num_cat=0
split_feature=0 6 7 7 2 0 0 2 7 4 4 7 6 0 0 0 0 6 0 0 7 6 6
split_gain=4.99522 4.73931 4.31039 4.2065 5.49744 5.82228 5.01361 3.89199 3.81905 3.67446 4.26715 6.485 4.1363 3.19898 2.74545 3.00282 5.73685 4.65041 3.83941 2.71689 2.14734 2.01385 1.90451
threshold=-0.00049117696775274877 0.02472345176335931 0.0019143429650577703 0.00093440909909655115 0.0013951394940058261 0.0041104326216171447 0.0031475648557226514 0.0022368226858542344 0.0010800860182007589 -0.0035839579353078017 -0.001138307417811901 -0.00077928893188478987 0.026174500972554086 -0.00057092991052237741 -0.00060399198509347707 -0.00068240732694818662 -0.00079837662501247564 0.013419502968479805 -0.0010472908974230586 0.0017965196639956329 0.00013418783229180264 0.016174350002720217 0.039086150023387549
decision_type=2 2 2 2 2 2 2 2 2 2 2 2 2 2 2 2 2 2 2 2 2 2 2
left_child=13 2 3 4 5 -2 8 -6 -5 -3 22 -12 -13 14 15 16 18 -17 -1 -4 -18 -15 -11
right_child=1 9 19 6 7 -7 -8 -9 -10 10 11 12 -14 21 -16 17 20 -19 -20 -21 -22 -23 -24
leaf_value=0.001797832429627409 0.0036978702312332511 0.014009712323195707 -0.034370456770806961 0.022402506922715757 -0.016886026360512382 -0.02854758729533945 0.03901409086482923 -0.0026672263169299935 -0.0010719880152442009 -0.033329162624355271 0.025882131302377622 -0.029129904758479288 -0.0060476349907572103 0.0081150087558543912 -0.018385267101346452 0.037254438147293185 -0.0059929203175615557 0.00072529938505603848 0.01356655854216691 -0.0031304954996111039 -0.029723654920100141 0.033556706305753817 -0.0085391065396776579
leaf_weight=397.0446575731039 437.00907611846924 18.403430983424187 13.3534352183342 23.446118652820587 66.572030261158943 13.441088125109671 12.460145726799963 173.06916010379791 57.971555456519127 22.14510814845562 13.903614833950995 20.463784903287888 235.59538105130196 21.975203767418861 13.958099886775015 15.111064627766607 26.62016649544239 19.687369272112846 83.479916676878929 14.695990324020384 15.16611625254154 12.616442576050757 13.92758549749851
leaf_count=1596 1754 74 54 94 268 54 50 695 233 89 56 83 953 89 56 61 107 79 336 59 61 51 56
internal_value=-1.94437e-05 -0.00197646 6.05646e-05 0.00076654 -0.000582937 0.00266351 0.0106408 -0.00669173 0.00581717 -0.0070747 -0.00840039 -0.00616447 -0.00801792 0.00364167 0.00271975 0.00328948 0.0023135 0.0173251 0.00387669 -0.0188462 -0.0152161 0.0182168 -0.0243812
internal_weight=1742.12 1136.46 812.019 783.969 690.091 450.45 93.8778 239.641 81.4177 324.439 306.035 269.963 256.059 605.659 571.067 557.109 522.311 34.7984 480.525 28.0494 41.7863 34.5916 36.0727
internal_count=7008 4572 3261 3148 2771 1808 377 963 327 1311 1237 1092 1036 2436 2296 2240 2100 140 1932 113 168 140 145
is_linear=0
shrinkage=0.05


Tree=26
num_leaves=31
num_cat=0
split_feature=0 6 7 6 10 4 4 10 10 0 7 10 6 0 6 6 6 10 7 6 3 6 0 0 0 10 4 7 6 10
split_gain=4.64497 9.03107 5.21802 3.54569 3.38165 3.72922 4.37659 3.23382 11.9671 6.3498 4.39929 3.04929 3.025 5.97262 3.85275 2.86063 2.72814 2.64714 2.44149 2.37011 5.16317 7.03482 2.72571 4.97666 4.57649 2.60197 12.0088 6.18093 7.04823 2.97481
threshold=0.00055349067732168866 0.036698923863414085 -0.00060889222776955266 0.040973712837806028 -0.0029446360562644376 0.0027908074261877584 -0.00017648617692078703 -0.0018511332953564106 -0.002759068283121668 0.0032777340869122322 -0.00022331605214194751 0.003951150508016533 -0.008114489718399823 0.0021628478377878628 -0.0029238879560533229 0.063702355396053026 0.051796210376108258 -0.0058425116916042677 0.0017783149604123009 0.0027611337585291928 1.0000000180025095e-35 -0.0042950964983541695 -0.0023656788645770583 -0.0019948074938317402 -0.0029100708988727959 -0.0069639505814492733 -0.0048114022987726371 -0.0011141393226962121 0.02122166808771012 -0.0058425116916042677
decision_type=2 2 2 2 2 2 2 2 2 2 2 2 2 2 2 2 2 2 2 2 2 2 2 2 2 2 2 2 2 2
left_child=3 7 -3 19 -5 6 -6 8 10 12 17 -11 13 -9 -14 -4 -7 -2 -13 20 22 -22 24 -24 -1 27 -27 28 -21 -28
right_child=1 2 15 4 5 16 -8 9 -10 11 -12 18 14 -15 -16 -17 -18 -19 -20 25 21 -23 23 -25 -26 26 29 -29 -30 -31
leaf_value=0.0017450789087347523 0 0.0048540870035316871 -0.027972506859849752 0.029030618978841523 0.014437788655325585 0.033809556235894718 -0.017719846697889573 0.022704497425051696 0.037129306079114653 -0.0027260035981331843 0.01756522600806867 0.032965397035563962 -0.028283520667668205 -0.017985794681074085 -0.0055551195122046778 -0.0010937233976862424 0.0032551395856366717 -0.019249580880846776 0.0043893157701595971 -0.012664347657830966 0.0049056517155409559 0.05121158775029773 0.032129086435749042 0.0027133864512579953 -0.029834014325245795 0.036337438092827745 0.021735648208351738 -0.028699845243585421 0.029639902885102373 -0.0012364615309378756
leaf_weight=38.113148212432861 45.796968877315521 19.626946642994881 62.135875910520554 20.027994081377983 17.622994348406792 14.635026678442957 23.378570646047592 23.641983643174171 23.927944928407669 18.415585458278656 21.661939397454262 19.651981189846992 19.14291213452816 13.198583886027334 299.11266034841537 12.301875621080397 14.905874311923979 28.427595168352127 12.949772030115126 26.941988974809647 22.164694011211395 12.524887785315512 14.697930499911307 183.40755395591259 15.197688937187193 21.599713668227196 13.394475787878035 25.380480766296387 14.179968461394308 643.40125422179699
leaf_count=153 184 79 253 81 71 59 94 95 96 74 87 79 77 53 1205 50 60 114 52 108 90 51 59 737 61 87 54 102 57 2586
internal_value=-1.91479e-05 -0.00349179 -0.0176774 0.00189743 0.0113326 0.0059025 -0.00376438 -0.000916411 0.00625568 -0.00305482 -0.00170076 0.0132476 -0.00544169 0.00790451 -0.00702219 -0.0236701 0.0191674 -0.00754863 0.0222319 0.00105356 0.0049146 0.0227313 0.0023562 0.00507133 -0.00754889 -0.000427322 0.000496488 -0.00979298 0.00216195 -0.000728044
internal_weight=1741.57 619.993 94.0647 1121.57 90.5705 70.5425 41.0016 525.928 119.814 406.113 95.8865 51.0173 355.096 36.8406 318.256 74.4378 29.5409 74.2246 32.6018 1031 286.106 34.6896 251.416 198.105 53.3108 744.898 678.395 66.5024 41.122 656.796
internal_count=7008 2498 382 4510 365 284 165 2116 481 1635 385 205 1430 148 1282 303 119 298 131 4145 1151 141 1010 796 214 2994 2727 267 165 2640
is_linear=0
shrinkage=0.05


Tree=27
num_leaves=31
num_cat=0
split_feature=0 6 0 6 9 9 9 9 0 8 8 8 0 0 9 8 9 9 6 6 0 8 3 9 10 10 8 9 9 0
split_gain=4.24038 4.05528 3.76172 3.97501 3.61337 7.06347 5.77583 3.45515 3.28878 2.99374 6.67427 2.98508 2.95875 2.91805 2.90988 2.8824 4.46589 4.25618 4.21106 4.79667 3.57891 5.04965 3.17018 3.00889 3.19303 2.62954 2.50175 3.06473 1.98729 1.84602
threshold=-0.00049117696775274877 0.02472345176335931 -0.00023291807477210377 0.022224763124055281 0.52645198176775876 0.065700954614984639 0.74552093667793129 -0.69678814681173529 -0.00044939255742493239 0.85313543761986688 0.65976359881436919 0.55919870661210613 0.00081488815898300715 -0.00057092991052237741 1.2604847318588441 0.86534636772370288 -0.66533789746521266 -1.1314568743928388 0.016484283022043768 0.01409753370839386 -0.002085857854086381 0.43276678297464255 1.0000000180025095e-35 -0.19783447800662798 0.0058166408043021098 -0.013177128296644967 0.98944240237320147 0.93301397361040295 -0.41454004121411786 -0.00027468758967963408
decision_type=2 2 2 2 2 2 2 2 2 2 2 2 2 2 2 2 2 2 2 2 2 2 2 2 2 2 2 2 2 2
left_child=13 2 8 4 5 -4 -6 -3 -2 10 11 -9 -12 15 -5 18 17 25 19 22 21 -20 -1 -18 -25 -17 -11 -28 -22 -10
right_child=1 7 3 14 6 -7 -8 9 29 26 12 -13 -14 -15 -16 16 23 -19 20 -21 28 -23 -24 24 -26 -27 27 -29 -30 -31
leaf_value=0.00082897498685694936 0.011865383139017416 0.016175328631532794 0.00077725099702678974 0.027162201483462607 0.021835365871788717 -0.015348183753781844 0.0015786931503379582 -0.0094389731044748695 -0.0089739349100155536 0.012211531548152597 -0.014348124179629962 0.010158744288498132 -0.041863562415062741 0.017297188372331639 0 0.01315243552056429 -0.024450168210574816 0.024550912245686663 0.0096389592351709338 -0.021733503107320685 0.024338627023824434 0.046688645197497949 0.021301252693306939 -0.0072792800043724433 0.018626140917313003 -0.0073877067213386494 -0.016789378973610179 0.0014490673372981131 0.0040238714480246409 -0.027940977423237985
leaf_weight=161.40661078691483 14.698693990707396 14.895058169960974 370.83574482798576 23.897146239876747 43.076794758439064 81.986818879842758 178.88520358502865 122.2442130446434 65.488126277923584 24.999805763363838 21.531836271286011 21.982437685132027 21.316103160381317 34.517959401011467 16.659128427505493 23.442286103963852 21.460458308458328 23.342661008238792 24.617642015218735 20.414921253919601 13.18230329453945 14.866675332188604 20.533603832125664 100.67368075251579 12.424209177494047 41.97785721719265 35.173921331763268 61.841846480965614 92.418181255459785 16.188031390309334
leaf_count=649 59 60 1490 96 173 329 719 495 263 101 87 89 87 140 67 94 86 94 99 82 53 60 84 404 50 169 142 250 372 65
internal_value=-1.17699e-05 -0.00181573 6.77721e-05 0.00132719 0.000394696 -0.00215875 0.00561269 -0.00653574 -0.0091465 -0.00769494 -0.0116568 -0.00636816 -0.0287932 0.00336221 0.016339 0.00248194 -0.00192862 0.00670213 0.00532862 0.000628961 0.0118 0.0245211 0.0032706 -0.00766631 -0.00425135 0 -0.00153459 -0.00521626 0.00681123 -0.0130861
internal_weight=1740.98 1135.7 811.716 715.341 674.785 452.823 221.962 323.985 96.3749 309.09 187.075 144.227 42.8479 605.279 40.5563 570.761 223.321 88.7628 347.44 202.355 145.085 39.4843 181.94 134.558 113.098 65.4201 122.016 97.0158 105.6 81.6762
internal_count=7008 4572 3261 2874 2711 1819 892 1311 387 1251 758 584 174 2436 163 2296 897 357 1399 815 584 159 733 540 454 263 493 392 425 328
is_linear=0
shrinkage=0.05


Tree=28
num_leaves=27
num_cat=0
split_feature=2 7 7 8 8 10 4 4 4 8 9 9 8 8 2 7 7 10 8 10 8 9 7 7 9 7
split_gain=3.6686 6.91074 5.45054 3.89351 5.32415 3.86033 8.34385 5.73033 5.64647 5.6064 5.54959 6.66095 5.1967 3.26874 3.26113 3.25644 6.34926 3.41307 3.31161 3.12094 2.34341 2.2657 2.17027 4.07133 1.71414 0.656737
threshold=0.0067764303446005156 0.0012253615434813048 0.001635271261277978 0.40981489923245756 0.93419914152959427 0.0043034718070217312 0.0030884936737487494 0.0068287361852842352 0.0034996136833829188 1.0000000180025095e-35 -0.33055320370794045 1.4249379311542059 0.66807256740296972 0.53276484838067428 0.0056821398403850152 0.00075884300237751793 0.00064667864177218165 -0.0020541455182772057 0.61284960048663473 0.005919144393047083 0.68643962444667594 1.1572501534626198 0.0023777572110989698 0.0019143429650577703 1.6064904708432757 0.00055038809994688027
decision_type=2 2 2 2 2 2 2 2 2 2 2 2 2 2 2 2 2 2 2 2 2 2 2 2 2 2
left_child=5 3 20 -2 -5 6 15 9 25 19 -10 -12 -9 21 -15 16 17 -1 -17 -7 -3 -11 23 -4 -14 -8
right_child=1 2 22 4 -6 7 8 12 10 13 11 -13 24 14 -16 18 -18 -19 -20 -21 -22 -23 -24 -25 -26 -27
leaf_value=0.0036008584136075642 -0.038351012256512211 0.034166748624394547 0.0027822772556652014 0.0083141394876589583 -0.027683754908773745 0.0055291250136124438 -0.022531813028775619 0.013594910440009642 0.021393768062570952 0.014721707650057312 -0.034230749806999958 0.0025019794062124145 -0.0094469484952708696 0.005697285323101979 0.030155615728332842 0.02585504471988 -0.028186946839080552 -0.0017271425799885996 -0.00015352554090726798 -0.028003747874462682 0.0047668157349390165 0.03840996767791862 0.0034353419903871592 -0.033377897123070752 -0.036742571521828707 -0.044155057593379385
leaf_weight=537.0579236894846 19.73236557841301 12.916438907384872 14.07146590948105 18.457422330975533 20.785859003663063 13.137413412332537 12.335052922368051 13.337055787444113 12.668822720646856 28.378504157066345 21.980017215013504 25.886916980147362 12.890412434935572 107.38878031075001 14.957305595278738 24.369290009140968 18.427374124526978 678.96078871190548 22.893000140786171 12.667605638504027 14.85229229927063 18.132711783051491 23.809431686997414 15.435976311564444 12.302600160241125 12.647893026471136
leaf_count=2161 80 52 57 75 84 53 50 54 51 114 89 105 52 432 60 98 74 2731 92 51 60 73 96 63 50 51
internal_value=-7.27041e-06 -0.0077402 0.00170076 -0.0206159 -0.0108426 0.000670768 -0.000341517 0.00660335 -0.0153725 0.0101018 -0.00677533 -0.0146183 -0.0107534 0.0134296 0.00894819 0.000668693 0.000166323 0.0006229 0.0134112 -0.0111761 0.0193281 0.024676 -0.00757474 -0.016444 -0.0238611 -0.0349493
internal_weight=1740.48 140.061 81.0856 58.9756 39.2433 1600.42 1367.23 233.192 85.5187 194.662 60.5358 47.8669 38.5301 168.857 122.346 1281.71 1234.45 1216.02 47.2623 25.805 27.7687 46.5112 53.3169 29.5074 25.193 24.9829
internal_count=7008 567 328 239 159 6441 5502 939 346 783 245 194 156 679 492 5156 4966 4892 190 104 112 187 216 120 102 101
is_linear=0
shrinkage=0.05


Tree=29
num_leaves=31
num_cat=0
split_feature=1 8 8 10 8 10 7 7 4 7 3 7 10 7 7 7 8 10 7 8 8 4 4 10 4 10 1 1 1 10
split_gain=4.15606 5.85661 5.78051 10.7561 5.72677 4.15613 3.55599 3.57249 3.41311 2.62653 5.92017 5.59244 4.62771 6.68126 6.62064 6.4689 5.45482 5.16143 4.7908 4.61499 5.82549 4.55473 4.4053 4.36839 3.99452 5.95751 2.93226 2.28676 1.69704 5.68902
threshold=0.66211347654092989 0.061379841952950411 0.34227057425759017 -0.00060726320960824409 0.42306659161856491 0.0043034718070217312 0.0023777572110989698 0.0015483445836060913 0.0061498251467817519 1.1798752327565239e-05 -1.0000000180025095e-35 4.0702093048932313e-05 -0.0020541455182772057 -0.00048878871347424852 -0.00057164431789802643 -0.00072974324268326978 0.73547629382151636 -0.00060726320960824409 -0.00032322360944809895 0.37591742871277495 0.10629307206057161 -0.0062673630857191789 -0.00051655565405950277 -0.0047398628530322942 0.0027259514036735992 0.003250613654280921 0.22535466255005485 0.79067962061155661 0.80522469014543707 0.0047744935432552102
decision_type=2 2 2 2 2 2 2 2 2 2 2 2 2 2 2 2 2 2 2 2 2 2 2 2 2 2 2 2 2 2
left_child=9 28 3 -3 -4 27 7 -6 -7 12 -11 -12 13 14 21 16 -14 18 -17 20 -15 -1 -19 -21 26 -26 -13 -5 -2 -30
right_child=1 2 4 5 6 8 -8 -9 -10 10 11 24 15 19 -16 17 -18 22 -20 23 -22 -23 -24 -25 25 -27 -28 -29 29 -31
leaf_value=-0.0044880128019932448 -0.0064347783147019307 0.049147025196134397 -0.025783635769068981 -0.020849641906941909 -0.0014806773313222445 0.033622457159524846 0.019194866270284834 -0.018695181340366348 -0.0011194589838966387 0.029466216594891428 0.031068645823642362 -0.0072872804117402549 0.039765398037241953 0.013335594662905948 -0.02502382460297984 -0.0035030689019777874 -0.0039450479639443125 0.0074843500115879926 -0.025591659764508473 0.036528576714347415 -0.020814792377771965 0.0079109135587172568 -0.010646799918135705 0.0113490085881172 -0.035936428667159563 -0.00085183718094766726 0.0072559201106456132 0.0022425778621759369 -0.033490241117527873 -0.0021192082825729364
leaf_weight=155.8360497802496 46.506592392921448 14.143962368369101 25.67154785990715 16.937517523765564 384.23412020504475 14.149346724152567 18.094622954726219 31.841520592570305 12.633479103446005 22.691822499036789 16.637133374810219 39.753208205103874 12.901505991816521 33.303215429186821 24.865769684314728 43.510745868086815 13.952997401356697 67.691342800855637 58.264401257038116 26.271947950124741 18.619004443287849 139.07931867241859 64.261839717626572 53.393385618925095 14.210653290152548 60.982361793518066 225.60976906120777 25.411146193742752 31.95320400595665 26.635368689894676
leaf_count=626 187 57 104 68 1551 57 73 130 51 91 67 160 52 134 100 175 56 272 234 106 75 560 258 215 57 245 906 103 130 108
internal_value=-9.05584e-06 -0.00318049 -0.00106951 0.0109595 -0.00327782 0.00248582 -0.00187942 -0.00285173 0.0176043 0.0018704 0.00522188 0.00358976 7.02821e-05 0.00313819 -0.000757486 -0.00521636 0.0175486 -0.00791689 -0.016323 0.0125774 0.000833077 0.00134928 -0.00132167 0.0200646 0.00214567 -0.00793269 0.0050393 -0.00714582 -0.0139297 -0.0195872
internal_weight=1740.05 648.212 543.117 83.2755 459.842 69.1315 434.17 416.076 26.7828 1091.84 379.885 357.193 711.952 451.369 319.781 260.583 26.8545 233.728 101.775 131.588 51.9222 294.915 131.953 79.6653 340.556 75.193 265.363 42.3487 105.095 58.5886
internal_count=7008 2619 2194 336 1858 279 1754 1681 108 4389 1526 1435 2863 1816 1286 1047 108 939 409 530 209 1186 530 321 1368 302 1066 171 425 238
is_linear=0
shrinkage=0.05


Tree=30
num_leaves=23
num_cat=0
split_feature=1 7 10 4 2 1 2 10 10 7 1 10 10 2 2 4 2 10 1 7 7 1
