tree
version=v4
num_class=1
num_tree_per_iteration=1
label_index=0
max_feature_idx=49
objective=binary sigmoid:1
feature_names=Column_0 Column_1 Column_2 Column_3 Column_4 Column_5 Column_6 Column_7 Column_8 Column_9 Column_10 Column_11 Column_12 Column_13 Column_14 Column_15 Column_16 Column_17 Column_18 Column_19 Column_20 Column_21 Column_22 Column_23 Column_24 Column_25 Column_26 Column_27 Column_28 Column_29 Column_30 Column_31 Column_32 Column_33 Column_34 Column_35 Column_36 Column_37 Column_38 Column_39 Column_40 Column_41 Column_42 Column_43 Column_44 Column_45 Column_46 Column_47 Column_48 Column_49
feature_infos=[-0.047539745193174721:0.046073680185503729] [-0.045740705665230252:0.036064781935195134] [-0.021889199763377887:0.031176706063365867] [-0.063906963993010324:0.042550467215842103] [-0.037184594953519223:0.034728250420922091] [0:0.99999999999999978] [0:10] [0:13] [-0.0073851283516309808:0.0067733103973838249] [-0.062085466201587503:0.047680753401159404] [-0.08110524407835995:0.061865951327393587] [0:0.99999999999999978] [-0.07158641517162323:0.074414737522602081] [-3.5911372435021294:3.7314032431930695] [-0.07502503216320533:0.084603102257391649] [-0.11651516422082464:0.090592389293203457] [1.6689893426287114e-06:0.99999999999999978] [-6.351002552797727:5.2492292380314849] [-0.0084507327502141103:0.011827212332752827] [-14.45309919755808:17.10908219197341] [0:1] [-0.53270735625538945:0.58726047398727932] [0.0016077966048574409:0.98895210153020729] [-0.11735309573875796:0.050227222453112619] [0:1] [-0.28153331392314679:0.15807104173582104] [-0.12932026871463423:0.17246728989774787] [0:0.99481332302093506] [0:5] [0:1] [-6.224456073749054:5.5097979484344064] [-0.21012667966515935:0.057078954821143758] [0.0068967898729324602:0.88534135750952958] [-0.056945871749965023:0.2614874804749156] [0:0.97893309593200684] [0.037712841538133264:0.89786759002576377] [-0.15952413063234575:0.15912755542285537] [-0.12745635211467743:0.062977112829685211] [0.15820044279098511:0.78129059076309204] [-0.085139989852905273:0.028584249317646027] [-1:1] [3.2707460698614766e-05:0.61799833101065738] [-6.9304665020793275:6.3517238028400085] [-0.059918278933035585:0.039716260359623945] [1.2509335084758639e-06:0.99999999999999989] [-0.094672650098800659:0.13519400358200073] [-1:0.78220003843307495] [0.67080219764434856:0.76626874392908573] [0:1] [-0.068491041660308838:0.20699596405029297]
tree_sizes=3465 5060 4905 4755 3689 4323 4563 4985

Tree=0
num_leaves=31
num_cat=0
split_feature=5 27 37 9 9 21 25 41 15 15 13 17 19 25 37 44 25 9 41 49 32 37 41 21 21 5 8 32 13 13
split_gain=29.5642 19.7314 9.60408 8.49286 9.26114 10.5478 8.14956 11.2954 7.65706 6.55997 6.34554 6.32707 7.79854 6.2471 10.2315 6.18202 5.81787 10.8144 7.19288 9.33493 9.41854 7.09166 6.19482 5.96689 7.85678 5.60627 4.92697 3.47218 2.50153 1.94088
threshold=0.83049219129409035 0.2185584828257561 0.04487081058323384 0.0077030460494542661 0.004100238624186959 0.12417109061003369 -0.14528497770460189 0.17883736442960702 0.0016984209180869183 0.019717989405080186 0.71671202971257741 1.9900400374127289 -1.8496746309389731 -0.032302973093814892 -0.0064596484880894414 0.44863283049983399 -0.053535528415236636 0.0065235729964298059 0.27081264145496881 0.026707470417022709 0.077084668357610561 -0.0088433660566806776 0.032266634639366763 -0.0060457979569347323 0.056611879630148444 0.34294652280491938 0.0008143369432866192 0.13229666188672537 0.042754569991566842 0.3973885162212128
decision_type=2 2 2 2 2 2 2 2 2 2 2 2 2 2 2 2 2 2 2 2 2 2 2 2 2 2 2 2 2 2
left_child=1 2 6 4 11 10 7 -1 -2 -5 -6 12 -3 14 -8 -9 17 23 21 20 -20 26 -23 -10 -25 -15 -18 -7 -13 -21
right_child=8 3 -4 9 5 27 13 15 16 -11 -12 28 -14 25 -16 -17 18 -19 19 29 -22 22 -24 24 -26 -27 -28 -29 -30 -31
leaf_value=0.038526389404629165 0.015114872054293828 0.0082985208289676725 -0.010186451304899405 0.032375795335937221 0.011923833781843127 -0.018478789126752132 0.012414182219414219 0.00310001240426434 -0.011615938549777423 0.006849341845574548 -0.0077996940713225913 0.0094574554870522423 0.0040643559520760139 0.017096637713998421 0.0053743468610965243 0.023677962067999707 -0.016084742583341013 0.022420976868044815 -0.016098585178235453 -0.0048010604301655831 0.0010198085772449711 -0.0069505588591586738 0.0075357717126285171 0.021253242740768855 -0.00096892651121100945 0.010766928088459438 0.0034198832800955872 -0.00062426428001448493 0.024526241452416365 -0.02072677397096935
leaf_weight=8.999894320964815 14.249832674860953 306.74639810621738 7.7499089986085883 7.4999119341373426 19.749768093228344 13.999835610389711 147.74826510250568 12.249856159090998 9.2498913854360563 7.4999119341373444 8.4999001920223218 9.2498913854360598 398.49532076716423 78.749075308442116 184.24783651530743 9.4998884499073011 10.749873772263529 12.249856159090994 14.249832674860953 7.499911934137347 96.998861014842987 12.749850288033484 81.749040082097054 8.4999001920223254 18.249785706400871 203.24761341512203 10.49987670779228 8.249903127551077 8.9998943209648115 13.499841481447218
leaf_count=36 57 1227 31 30 79 56 591 49 37 30 34 37 1594 315 737 38 43 49 57 30 388 51 327 34 73 813 42 33 36 54
internal_value=0.00684934 0.00805597 0.0106269 0.00593024 0.00563123 -0.00256665 0.0109062 0.0208271 0.00126169 0.0203461 0.00575976 0.0062184 0.00590829 0.0103842 0.00850858 0.0123448 0.000563038 0.00687757 -0.000668708 -0.00385334 -0.00137561 0.00304753 0.00547817 0.00136464 0.006429 0.0125716 -0.00712434 -0.0125508 0.0175248 -0.015918
internal_weight=1751.98 1441.48 652.492 788.991 773.991 50.4994 644.742 30.7496 310.496 14.9998 28.2497 723.492 705.242 613.993 331.996 21.7497 296.247 48.2494 247.997 132.248 111.249 115.749 94.4989 35.9996 26.7497 281.997 21.2498 22.2497 18.2498 20.9998
internal_count=7008 5766 2610 3156 3096 202 2579 123 1242 60 113 2894 2821 2456 1328 87 1185 193 992 529 445 463 378 144 107 1128 85 89 73 84
is_linear=0
shrinkage=1


Tree=1
num_leaves=46
num_cat=0
split_feature=11 34 2 34 34 36 48 47 46 21 34 5 49 45 34 45 26 17 34 10 45 43 11 35 21 43 21 43 26 2 36 36 19 26 49 34 15 48 47 43 46 21 33 33 16
split_gain=29.351 12.8582 14.0098 11.3397 10.159 9.24411 10.1674 8.9279 9.18574 7.64417 7.46536 10.5048 7.38774 9.76205 7.82652 6.8132 6.63289 17.0864 12.9732 8.52339 6.43453 6.42867 5.97901 5.83007 5.72091 5.58274 5.40187 6.44193 5.87628 5.37156 5.72617 8.34429 7.33942 4.99187 4.55886 4.54139 4.51825 4.51776 3.97166 3.86914 3.85326 3.66968 3.43366 2.10666 1.54769
threshold=0.61259887879874408 0.28859841823577886 -0.00049117696775274877 0.26993858814239508 0.21321750432252887 0.02803158679152102 0.84624791885766149 0.75086941547124619 -0.60079252719879139 -0.0011905073920946245 0.019284750334918502 0.59566474733797758 -0.00099375844001769998 -0.013255516067147253 0.34588113427162176 0.03975696116685868 0.012473210816780758 0.55057458815670179 0.050086909905076034 0.0023459145636189897 -0.015499247238039969 -0.0079104016948660632 0.74190495947852664 0.18925065091431822 0.065164491149845363 -0.012611099808516766 0.11841712396435257 -0.028650924607987013 0.03550269892962065 -0.0023213580055883028 0.034446150021755613 0.026566603555007291 3.6572108759456792 0.01314584077456438 0.0013517737388610842 0.35489046573638922 0.0057404261409569344 0.99985453251587209 0.70251782940465757 0.0015608854691983034 0.22164567559957507 0.039812383324160587 0.0026646537133313036 0.022480616627414973 0.60683607434051401
decision_type=2 2 2 2 2 2 2 2 2 2 2 2 2 2 2 2 2 2 2 2 2 2 2 2 2 2 2 2 2 2 2 2 2 2 2 2 2 2 2 2 2 2 2 2 2
left_child=1 2 5 15 16 10 44 8 21 22 24 -12 35 14 -14 25 17 19 -19 40 -11 34 -10 -3 -1 -4 27 37 -29 -18 31 -31 -32 -28 -6 -9 -20 -25 -35 -21 -2 -23 -15 -5 -7
right_child=4 23 3 43 7 6 -8 12 9 20 11 -13 13 42 -16 -17 29 18 36 39 -22 41 -24 26 -26 -27 33 28 -30 30 32 -33 -34 38 -36 -37 -38 -39 -40 -41 -42 -43 -44 -45 -46
leaf_value=0.0062872471406514767 0.0099465691996538947 0.017842697397921905 -0.0058911991981852709 -0.023915138150658231 0.0065472154010615662 0.013723824250357787 -0.00091202398525870934 0.0048130962425770099 -0.0035756173098062485 -0.010513773383032202 -0.00038795969767664226 0.021858597580978158 -0.0044679729299011515 0 0.021001124341822532 0.011764168679102988 0.0072883039923600443 0.032739749650969256 0.012306553394350413 -0.024543443997734671 -0.0029438515035096675 0.0017522502223064321 0.010846805667377142 0.00025141112293435741 0.025461514182826592 -0.00024191047739572196 0 0.0039120260510485663 0.017489061990645097 -0.0079079105435049986 -0.020346787040960476 0.0015997375845443352 -0.0078014240421164826 0.028201975075528081 -0.0071685611722563467 0.02515067349157591 -0.0070541558420191162 -0.016799809320880654 0.0098851038310614533 -0.0058793481051228613 -0.0079057083951391376 0.018520198883895191 -0.018283920825925906 -0.0078940176497137408 0.030125718968731716
leaf_weight=29.498962923884392 9.7498144358396548 12.749613761901854 92.498329818248749 8.9998287856578845 18.249592363834381 7.499762758612639 9.7496743053197843 8.7497902661561984 21.499670594930649 63.99840934574604 147.24552877247334 7.9998369365930548 7.499789476394656 7.4999479204416266 10.74981042742729 14.749631270766256 9.4997781217098218 7.7496802657842663 8.4998522549867648 10.7497625797987 153.49619980156422 8.4997851401567477 22.499279096722603 17.249330595135689 7.4996929615735999 281.74475879967213 9.4997413009405118 320.99089340865612 12.49970483779907 122.74714176356792 25.499216079711914 51.748730018734932 75.997698426246643 7.7497705966234234 18.499572902917862 9.9996470957994443 8.7497663646936399 8.4997763931751269 15.749615132808684 8.9998142421245557 7.7498028129339209 14.999481797218321 8.2497733831405622 7.7498487979173651 9.4996588379144651
leaf_count=118 39 51 370 36 73 30 39 35 86 256 589 32 30 30 43 59 38 31 34 43 614 34 90 69 30 1127 38 1284 50 491 102 207 304 31 74 40 35 34 63 36 31 60 33 31 38
internal_value=0 0.00216661 0.000361785 -0.00183446 -0.00308922 0.00442984 0.0152493 -0.00079325 -0.00205286 -0.00367914 0.00284293 0.000878173 0.00674779 0.00100317 0.0107422 -0.00111267 -0.0055467 0.000334787 0.0128694 -0.00814191 -0.0052184 0.00491779 0.00383213 0.00493805 0.0107943 -0.0016555 0.0044692 0.00372732 0.00447766 -0.00683277 -0.0073506 -0.00508386 -0.0111405 0.0121396 -0.000311335 0.0164853 0.00252795 -0.00572005 0.016912 -0.0168279 0.00193249 0.0128559 -0.0101298 -0.0174774 0.0241652
internal_weight=1751.96 1029.72 624.736 405.742 722.232 218.993 26.7491 374.491 321.742 261.494 192.244 155.245 52.7488 33.9993 18.2496 388.993 347.741 62.2485 24.9993 37.2492 217.495 60.2484 43.9989 404.988 36.9987 374.243 392.239 359.24 333.491 285.493 275.993 174.496 101.497 32.9991 36.7492 18.7494 17.2496 25.7491 23.4994 19.7496 17.4996 23.4993 15.7497 16.7497 16.9994
internal_count=7008 4119 2499 1623 2889 876 107 1498 1287 1046 769 621 211 136 73 1556 1391 249 100 149 870 241 176 1620 148 1497 1569 1437 1334 1142 1104 698 406 132 147 75 69 103 94 79 70 94 63 67 68
is_linear=0
shrinkage=0.02


Tree=2
num_leaves=44
num_cat=0
split_feature=11 34 2 34 23 34 38 3 44 32 38 38 0 17 10 41 43 24 33 33 19 10 10 43 43 37 19 19 34 17 31 2 19 33 33 33 3 11 5 34 44 38 38
split_gain=28.2114 12.3553 13.502 10.9429 10.4061 9.77128 8.85408 13.1673 7.63433 8.93056 7.46257 18.5632 7.13178 6.92474 10.3245 8.2285 6.53923 7.38342 7.04277 6.50194 13.2332 9.19943 7.87159 6.53306 6.65045 8.15207 6.43645 6.38105 6.34801 6.32263 5.73959 5.64592 5.57776 5.51491 10.1694 7.53458 5.11527 5.68573 4.83399 4.06486 4.06403 3.94268 2.56812
threshold=0.61259887879874408 0.28859841823577886 -0.00049117696775274877 0.26993858814239508 0.0041479640215905675 0.21321750432252887 0.39256404340267187 -0.015655238745965024 0.91427599603449772 0.34992421312309169 0.48361712694168096 0.46080400049686437 0.0067764303446005156 0.88237237181152806 0.0057003227247269814 0.34707729687147243 -0.012611099808516766 0.14542885209032616 0.02044480330985594 -0.0063511813759696322 5.2189385659782177 0.00019492902247286728 0.0028724856788097113 0.015482066320172906 -0.0025260146927318368 0.0034637659555301075 6.351520332287202 6.9606272113517837 0.026546299457550052 1.5500698876560974 0.00094802852337933354 0.00012237375894541549 3.2285213259081789 0.013597081444831294 0.0089539908066463957 0.017428137059957324 -0.004024877951368743 0.23309737923851107 0.22790847821134655 0.094359565526247038 0.6074356862587682 0.47531598806381231 0.44753858447074896
decision_type=2 2 2 2 2 2 2 2 2 2 2 2 2 2 2 2 2 2 2 2 2 2 2 2 2 2 2 2 2 2 2 2 2 2 2 2 2 2 2 2 2 2 2
left_child=1 2 4 16 6 8 7 -1 9 10 11 -2 31 -10 39 -16 18 -18 -4 23 21 30 -23 24 25 -7 41 -26 -8 -12 -21 33 -6 34 -3 -35 38 -38 -33 -15 -28 -22 -5
right_child=5 12 3 42 32 19 28 -9 13 -11 29 -13 -14 14 15 -17 17 -19 -20 20 26 22 -24 -25 27 -27 40 -29 -30 -31 -32 36 -34 35 -36 -37 37 -39 -40 -41 -42 -43 -44
leaf_value=-0.0083766047961343314 -0.0053150940916074163 0.0052832380131774929 -0.01347700755748372 -0.0067541145148667797 0.024524397282010627 0.015127504894504975 0.0074833453451609803 0.0157580421637405 -0.028515144052207068 0.013824694852321717 -0.0040508018852859276 -0.028372784442283958 -0.0083692947323125658 -0.004923507672475293 -0.023542460791315858 -0.0034475330970943252 0.017975361630442971 -0.00017548611502709398 -0.0018254785420990414 -0.0042873088035448254 -0.030401399353256895 0.0087200074490236101 -0.00054718121703607151 -0.012409097952307669 0.017576981127034836 -0.0061255059833872838 0.0053329704237966699 0.0018702632655274731 -0.0019637814927354769 0.0055641717817623195 -0.022026476124892273 0.007851414692966581 0.0028374532882817394 0.014926826239233174 -0.0082105283562662248 0.0040686166014728296 0.017086673943544496 0.0034481498436616199 0.025344700801289709 0.013997740692977481 -0.0095977934985142285 -0.011679792936897826 -0.023931532117884076
leaf_weight=10.99959449470043 136.99256107211113 54.245800659060478 29.999886497855186 7.4998630732297924 13.74715030193329 8.7497853040695173 36.996087208390236 37.496961370110512 7.9994900524616233 9.7496105134487134 90.246176302433014 14.749469727277754 14.749009400606154 8.749576151371004 18.748959630727768 14.999387949705122 8.249715641140936 285.24394981563091 65.499186292290688 45.998742133378983 7.4995978772640255 49.747725024819374 130.49354813992977 7.7497607320547095 24.248232886195183 26.748375058174133 9.999551862478258 18.499070927500725 111.99551331996918 37.99723856151104 7.9996690750122061 14.748990431427957 7.7487349808216086 29.747941851615906 36.497874617576599 168.98942273855209 14.998904988169668 57.996847540140152 12.999371588230131 7.4998022317886344 20.748967915773392 15.999683171510695 9.24930392205715
leaf_count=44 548 217 120 30 55 35 148 150 32 39 361 59 59 35 75 60 33 1141 262 184 30 199 522 31 97 107 40 74 448 152 32 59 31 119 146 676 60 232 52 30 83 64 37
internal_value=1.10881e-07 0.00212599 0.00035673 -0.00179926 0.00435054 -0.00302685 0.00285438 0.010185 -0.00543702 -0.00407355 -0.0047509 -0.0077405 0.00484278 -0.0120301 -0.00884592 -0.0150251 -0.00109013 0.000387224 -0.00560812 -0.000774995 -0.00221838 -0.000132458 0.00203359 0.00401397 0.00580189 -0.000561204 -0.0110237 0.0110237 0.000402952 -0.0011655 -0.00730438 0.00536737 0.0172693 0.00391279 -0.000152606 0.00577053 0.00944782 0.00647062 0.0167127 0.00399875 -0.00466421 -0.0187333 -0.0171665
internal_weight=1751.92 1029.7 624.726 405.742 218.984 722.215 197.488 48.4966 347.732 289.735 279.985 151.742 404.974 57.9972 49.9977 33.7483 388.993 293.494 95.4991 374.483 288.487 234.24 180.241 85.9952 78.2455 35.4982 54.2478 42.7473 148.992 128.243 53.9984 390.225 21.4959 289.481 90.7437 198.737 100.744 72.9958 27.7484 16.2494 30.7485 23.4993 16.7492
internal_count=7008 4119 2499 1623 876 2889 790 194 1391 1159 1120 607 1620 232 200 135 1556 1174 382 1498 1154 937 721 344 313 142 217 171 596 513 216 1561 86 1158 363 795 403 292 111 65 123 94 67
is_linear=0
shrinkage=0.02


Tree=3
num_leaves=43
num_cat=0
split_feature=5 27 47 14 42 39 40 25 25 9 9 9 2 2 5 25 15 15 16 19 33 42 25 49 10 1 15 26 33 2 15 48 27 40 1 3 49 19 10 37 37 42
split_gain=27.26 18.4438 12.6588 10.1067 11.4606 10.7838 9.99508 9.45619 8.36543 8.2704 8.63254 8.2587 7.59081 8.25141 7.49225 7.2182 6.80594 6.28197 6.21485 8.38597 7.22808 6.10184 6.45818 6.06897 5.74789 7.27592 5.69209 5.59789 5.84382 5.34866 4.9785 4.97211 4.77452 4.42847 4.40486 4.32652 4.26111 3.97184 3.19149 2.93434 2.82728 1.62804
threshold=0.83049219129409035 0.2185584828257561 0.73262536094100061 0.0029859530349158896 0.32345212662032724 0.011536908335983755 -0.98296291314453399 -0.13775716957762182 0.038136811573741568 0.0077030460494542661 0.004100238624186959 0.0051633383913487494 0.0020283016548079407 0.00088801385851755576 0.037337187137911891 0.048619189031813011 0.016435546476038513 0.019717989405080186 0.85556427133955237 -1.8496746309389731 -0.0030199350226124532 -0.067569172535084751 -0.051748506775220145 0.0037631392478942875 0.00089918603576588662 0.0032820657489718301 0.0096674339857683051 0.03594801175600662 0.0014491889202368185 -0.0016608826107489259 0.0092620666674984049 0.69712898747470275 0.25393062829971319 -0.70710678118654735 0.0068287361852842352 0.0031851407125348401 -0.0054152607917785636 3.6572108759456792 0.0023459145636189897 0.03017367143183947 0.0037892531836405401 1.879246333031426
decision_type=2 2 2 2 2 2 2 2 2 2 2 2 2 2 2 2 2 2 2 2 2 2 2 2 2 2 2 2 2 2 2 2 2 2 2 2 2 2 2 2 2 2
left_child=1 3 12 4 6 11 -1 -6 -8 10 18 15 13 24 -9 -5 33 -11 19 -3 -20 32 -23 40 -2 -26 -25 28 -24 -7 35 -18 36 -14 -13 -15 -4 -35 -31 -29 -12 -32
right_child=2 9 21 5 7 29 8 14 -10 17 23 34 16 30 -16 -17 31 -19 20 -21 -22 22 27 26 25 -27 -28 39 -30 38 41 -33 -34 37 -36 -37 -38 -39 -40 -41 -42 -43
leaf_value=-0.013944966194250237 0.007850330803125671 0.0014086854825609563 0.004203945865762255 -0.0020456618209615642 0.025604550180100029 0.0030731304278706927 0.0044392508424764658 -0.0098414564403207453 -0.0095690030568043802 0.025105108991897766 0.0073390936818777865 0.015313729863927221 0.01697500126192222 0.00087289754048937079 0.008756929622738694 0.014755216885203924 0.00082172796249627372 0 0.020659427406878171 -0.00301191364129687 0.00086590604732319999 0.010830064997172578 0.0078378404196295867 -0.025426028464556875 -0.013816197327514681 -0.0029063943182407286 -0.0064755510896663182 -0.02036996866814449 -0.0091750252379923132 -0.0073760535815005366 -0.025584552555123655 -0.016601720336720055 -0.00053311923491274201 -0.0076652257181136184 -0.00097423084719468049 -0.015073127555924605 0.025550108784673575 0.0086200486220158416 -0.023072121426190324 -0.0048083268591468335 -0.0064898548183969689 -0.011406957946579461
leaf_weight=12.749047845602034 8.9995036125183088 309.73144274950027 7.9992510676383972 110.99080234766006 12.244581490755079 7.7496288567781475 257.22347055375576 8.2489835023879987 17.24796861410141 7.4976209998130781 8.2495430707931536 22.747901648283008 7.7493627965450314 9.7491853237152117 160.73185306787491 10.249386042356489 11.249250769615173 7.4996430426836014 10.499400138854982 381.72848083078861 21.498389273881912 10.748866230249403 16.498039260506633 11.748311728239061 46.496192544698715 52.995726808905602 15.248474329710005 10.49822121858597 13.998556464910505 12.498990476131441 20.247962743043903 13.748470470309258 12.74879479408264 11.498663336038591 8.7494882047176343 19.247568234801292 7.4994062185287493 10.499112814664839 10.999261200428007 10.49854391813278 15.248076319694517 7.4996563345193854
leaf_count=51 36 1239 32 444 49 31 1029 33 69 30 33 91 31 39 643 41 45 30 42 1527 86 43 66 47 186 212 61 42 56 50 81 55 51 46 35 77 30 42 44 42 61 30
internal_value=0 0.00115937 -0.00536504 0.00364519 0.00520262 -0.00031606 0.00269229 0.00913359 0.00352016 -0.000895793 -0.0011909 0.00188023 -0.00794632 -0.0100763 0.00778471 -0.000499903 -0.00141621 0.013331 -0.000623873 -0.00102969 0.0078506 0.000906462 -0.00257315 -0.00910625 -0.00670966 -0.00811159 -0.0154074 -0.00556208 0 -0.0108388 -0.0162507 -0.00895403 0.00846786 0.00493829 0.0108369 -0.00979477 0.0155766 5.73028e-05 -0.0154467 -0.0132523 -0.00145175 -0.0223523
internal_weight=1751.85 1441.38 310.47 652.431 468.446 183.985 287.22 181.225 274.471 788.949 773.952 152.738 219.981 165.236 168.981 121.24 54.7449 14.9973 723.458 691.46 31.9978 90.4897 62.2422 50.4944 108.491 99.4919 26.9968 51.4934 30.4966 31.2479 56.7444 24.9977 28.2475 29.7471 31.4974 28.9968 15.4987 21.9978 23.4983 20.9968 23.4976 27.7476
internal_count=7008 5766 1242 2610 1874 736 1149 725 1098 3156 3096 611 880 661 676 485 219 60 2894 2766 128 362 249 202 434 398 108 206 122 125 227 100 113 119 126 116 62 88 94 84 94 111
is_linear=0
shrinkage=0.02


Tree=4
num_leaves=33
num_cat=0
split_feature=11 0 32 35 19 32 47 43 24 0 25 19 25 28 16 25 18 26 30 42 47 35 19 17 39 24 0 47 35 32 12 11
split_gain=26.3306 7.54936 7.91869 7.85626 7.95971 7.644 9.4789 8.48093 6.17048 11.5629 12.1096 6.11842 8.36727 9.68897 6.03544 8.17327 7.67503 6.25597 5.89592 9.58031 7.93345 5.68367 12.5352 8.35276 5.54976 5.02827 4.6151 4.75824 4.24448 3.53263 2.97347 2.52145
threshold=0.61259887879874408 0.00071400488957495966 0.17803606184744517 0.61956871615735187 -7.7799528057878629 0.061164937760292887 0.67797606289111101 -0.0070405315783276237 0.55253484429595334 -0.0019756320768946063 -0.0710437201082771 -3.4564850267180964 -0.11890841225673481 4.5000000000000009 0.90925255825605789 -0.033397144536814034 0.0010318090431834812 0.018122131049508241 -0.78609939307500776 0.15252356693447133 0.71102767593130201 0.62310539161456135 5.5050070025493776 1.9900400374127289 0.012003707699477674 0.57020380031833218 -0.0073559031618570239 0.70771614581363895 0.43760064670695387 0.048363384499646792 0.00092729899915866565 0.53046207555874914
decision_type=2 2 2 2 2 2 2 2 2 2 2 2 2 2 2 2 2 2 2 2 2 2 2 2 2 2 2 2 2 2 2 2
left_child=1 2 8 4 29 7 -7 -6 18 25 -11 -2 13 30 21 16 -16 -17 19 -1 -20 22 -14 -23 26 -10 27 -4 -28 -3 -13 -5
right_child=11 3 24 31 5 6 -8 -9 9 10 -12 12 14 -15 15 17 -18 -19 20 -21 -22 23 -24 -25 -26 -27 28 -29 -30 -31 -32 -33
leaf_value=0.0028735508362082557 -0.015400799304051123 0.018907457875161328 0.002719317422632431 0.0040471946876202572 -0.012238596746815975 -0.017080260567897868 0.0026164197134217111 -0.0018918014935220761 0.02675813657723123 0.015246384157857736 -0.0054179571133482875 0.0066578952446583071 -0.0027748079042395186 -0.007101953675800186 -0.0045975565074089647 0.0068341744251791741 0.015600386713615751 -0.011305403010765609 0.0038508139707808826 0.011558973079214937 -0.0034198159192694449 0.002243281660218074 -0.018780626311160058 -0.0081893415367971061 -0.018882220510662705 0.010953840709985523 0.014792442215765802 -0.013826358482280554 -0.0024188175894697631 0.0014789957888434299 0.022931077348259311 0.020733547873499913
leaf_weight=227.72701899707317 14.498277485370634 9.7479445189237612 11.498549640178682 7.9988479167222959 45.745947241783142 9.4992448985576612 138.4878304451704 101.74166150391102 9.998188301920889 15.495537012815474 35.245160028338432 10.498062342405321 314.71552723646164 11.248914614319803 23.996317237615585 7.4986930191516867 9.7481100410222989 90.730153143405914 133.98184888064861 65.241664081811905 106.98537567257881 173.22953464090824 19.996189013123512 36.243228405714035 7.4988465756177893 49.990850523114204 9.4989639073610324 14.998914435505865 11.74902558326721 8.9989372640848142 9.7486908435821515 7.4989061802625656
leaf_count=911 58 39 46 32 183 38 554 407 40 62 141 42 1259 45 96 30 39 363 536 261 428 693 80 145 30 200 38 60 47 36 39 30
internal_value=0 0.00205308 0.00322748 -0.000436036 -0.00114471 -0.00196591 0.00123252 -0.00517532 0.00385246 0.00814429 0.00102671 -0.00292522 -0.00264543 0.00726376 -0.00312 -0.00695036 0.00146074 -0.00984557 0.00294511 0.00484727 0.000613719 -0.00217637 -0.00379007 0.000398381 -0.00396891 0.0140162 -0.0012463 -0.00673586 0.00550467 0.0111412 0.015298 0.0130098
internal_weight=1751.78 1029.63 699.91 329.719 314.222 295.475 147.987 147.488 644.666 110.73 50.7407 722.152 707.653 31.4957 676.158 131.973 33.7444 98.2288 533.936 292.969 240.967 544.184 334.712 209.473 55.2443 59.989 47.7455 26.4975 21.248 18.7469 20.2468 15.4978
internal_count=7008 4119 2800 1319 1257 1182 592 590 2579 443 203 2889 2831 126 2705 528 135 393 2136 1172 964 2177 1339 838 221 240 191 106 85 75 81 62
is_linear=0
shrinkage=0.02


Tree=5
num_leaves=39
num_cat=0
split_feature=11 27 21 27 11 47 47 42 11 3 0 44 34 8 11 37 21 48 43 47 37 46 4 27 4 3 34 42 37 27 11 38 49 48 34 3 43 45
split_gain=25.3073 14.7319 10.9439 10.3376 8.79784 8.71989 11.4635 8.49811 10.485 10.1261 8.45013 8.431 9.68505 8.32533 8.2642 7.7424 7.68861 7.42233 9.13655 7.21497 7.20057 7.15045 6.9824 6.70228 6.67636 6.46944 5.64216 5.62635 5.58568 5.52674 5.50752 5.38236 4.82339 6.42864 4.7767 3.80971 2.29717 1.13317
threshold=0.61259887879874408 0.38784109055995947 0.21358393973572495 0.063866648823022856 0.12338437689080715 0.75150518610403105 0.71289059732864468 0.35463110236487022 0.048193287014504718 -0.0035966021306050307 0.00392285093777034 0.91776398016160987 0.27881135046482092 0.00035062035614769104 0.66690584974330658 0.039531432092189796 -0.27759577802831997 0.061379841952950411 0.0016574013631365239 0.71129948460599191 0.023041637614369396 0.32458040118217474 -0.0041258875909505601 0.040687954053282745 -0.0032456098476416613 0.0067945403264283452 0.31032875180244451 -0.39524317361832084 -0.041738005355000489 0.3549900501966477 0.28303105709782445 0.65177109837532055 0.01709544658660889 0.15204778318328702 0.19442243874073031 0.0048426089061733854 0.0017530489380553906 -0.0062881978228688231
decision_type=2 2 2 2 2 2 2 2 2 2 2 2 2 2 2 2 2 2 2 2 2 2 2 2 2 2 2 2 2 2 2 2 2 2 2 2 2 2
left_child=1 2 7 5 34 6 13 10 -9 -10 16 17 32 14 -2 29 -1 18 35 -20 28 -12 30 -15 -24 -26 -22 -8 -19 -14 -6 -29 33 -13 -3 -5 37 -7
right_child=3 4 -4 11 22 36 27 8 9 -11 21 12 15 23 -16 -17 -18 20 19 -21 26 -23 24 -25 25 -27 -28 31 -30 -31 -32 -33 -34 -35 -36 -37 -38 -39
leaf_value=0.011100084755498211 -0.0073560073605785951 -4.1415757194603956e-05 0.021467729547254594 -0.017282021119170252 -0.025212198511107703 0.022318233947131873 0.005380067742414122 -0.014109748861103244 0.012946611215201496 0.0042066372300696561 -0.0096075773672580963 0.0045130626608608729 0.010002922569565149 -0.0076567765469786808 0.014002697990269035 -0.018236795857438499 0.0016033882506162557 -0.017561801054111929 -0.011408574024072873 0.0081995123932325151 0 0.0078755149565276298 0.015120306283147991 0.010290632433642951 -0.0030933973098998934 0.01150140390117264 0.016233710246208087 -0.019717246422085756 -0.0023500079349417502 -0.0079785940607825373 -0.0020999477883029659 -0.0025890291861262022 -0.024922859660379344 -0.014954284167448767 0.017682172589759411 -0.0035841797433234682 0.0030040753634396544 0.0089645236586366351
leaf_weight=36.993403881788254 8.2494197338819486 10.499302431941034 12.493514031171797 35.494350716471672 8.4994819164276141 8.2475309520959854 7.7490147650241843 8.9986696839332563 75.227546647191048 183.95965069532394 42.244617581367493 7.9984343498945227 17.746881842613224 28.993179932236671 35.245962649583817 7.4981652349233618 350.20040015876293 8.9989575743675214 11.748714014887812 17.247716069221497 21.496304363012314 10.998881712555884 7.9994537830352774 10.498696610331534 248.98055087029934 11.749307811260222 13.497558385133742 17.996716320514683 369.19995513558388 9.7483301162719709 7.9991697520017615 12.996807575225828 14.491574779152868 29.991627186536789 12.747966378927229 11.747488662600515 7.7476129382848731 7.4981555491685876
leaf_count=148 33 42 50 142 34 33 31 36 301 736 169 32 71 116 141 30 1401 36 47 69 86 44 32 42 996 47 54 72 1477 39 32 52 58 120 51 47 31 30
internal_value=0 0.00201345 0.00357754 -0.00286725 -0.0016362 0.00188273 -0.000289665 0.0032295 0.00603252 0.00679106 0.0015084 -0.0040676 -0.00976721 0.00388369 0.00983254 -0.00147839 0.00254213 -0.003027 -0.00872893 7.25995e-05 -0.00195158 -0.0058805 -0.00261673 -0.00269986 -0.00180396 -0.00238664 0.00659122 -0.00915218 -0.00276259 0.00350119 -0.0148812 -0.0129026 -0.0151256 -0.0107937 0.0099235 -0.0140622 0.0127728 0.0169937
internal_weight=1751.72 1029.59 721.117 722.129 308.475 145.223 121.73 708.623 268.186 259.187 440.437 576.906 87.475 82.9873 43.4954 34.9934 387.194 489.431 76.2383 28.9964 413.193 53.2435 285.228 39.4919 268.729 260.73 34.9939 38.7425 378.199 27.4952 16.4987 30.9935 52.4816 37.9901 23.2473 47.2418 23.4933 15.7457
internal_count=7008 4119 2885 2889 1234 581 487 2835 1073 1037 1762 2308 350 332 174 140 1549 1958 305 116 1653 213 1141 158 1075 1043 140 155 1513 110 66 124 210 152 93 189 94 63
is_linear=0
shrinkage=0.02


Tree=6
num_leaves=41
num_cat=0
split_feature=5 34 30 2 41 9 45 6 33 46 36 36 42 2 20 25 25 24 34 2 42 31 37 25 1 37 46 1 41 37 25 45 43 41 31 44 42 34 9 2
split_gain=24.7754 12.2157 11.1141 9.66478 13.2378 9.93877 8.80124 8.53755 9.89073 7.53516 7.44993 6.20752 6.10093 10.3187 9.24928 5.96362 6.37961 6.34756 5.39604 8.09061 7.47401 9.99298 5.78034 6.27452 5.8552 5.60281 5.16423 7.27555 5.05029 6.09184 5.02129 4.75325 4.64358 4.4209 4.25535 3.33551 2.9109 2.34449 2.24145 0.490007
threshold=0.83049219129409035 0.33330501616001135 1.9283560816178058 0.00018276372799852505 0.26599190594996974 -0.0022131406137489425 -0.014062400441616772 1.5000000000000002 -0.032850215421782243 0.35652059316635137 0.038477440976220668 0.01529432017574855 1.5176279984278152 -0.0014993350483933907 0.16666666666666669 -0.10365926946336339 -0.046271897259215294 0.6763363362114414 0.3766832053661347 0.0019367258885217844 0.85942398737850112 -0.015216315702988974 0.0047517900820821532 0.026136032064862806 0.0064353529973497645 0.018983033485710624 -0.30034306645393366 7.0440243427949425e-05 0.27822482002621568 -0.0031285457080230113 -0.034774943511176319 -0.023056294769048687 0.0033058257629666747 0.19340604939283976 -0.013201544876160388 0.40829502901366405 1.7227314147871635 0.16686832904815677 0.011610874615388346 -0.00020565757128332415
decision_type=2 2 2 2 2 2 2 2 2 2 2 2 2 2 2 2 2 2 2 2 2 2 2 2 2 2 2 2 2 2 2 2 2 2 2 2 2 2 2 2
left_child=1 7 3 4 5 -3 -6 8 -1 18 11 -11 14 -14 -10 37 32 -18 19 28 21 -20 24 -24 -21 39 30 -28 29 -2 -5 -30 -17 -4 -13 -23 -36 -9 -12 -22
right_child=9 2 33 26 6 -7 -8 15 12 10 38 34 13 -15 -16 16 17 -19 20 22 25 35 23 -25 -26 -27 27 -29 31 -31 -32 -33 -34 -35 36 -37 -38 -39 -40 -41
leaf_value=-0.020824384315267345 -0.016065806456875453 0.0080907043702043002 0.025748546325057027 0.010683247464802256 0.018174005634160238 -0.0034047205716376421 0.0040928046022419172 -0.00096973459166100966 0.0026471699173361237 -0.0079606874006200503 -0.016591518326606849 0.017207540593567487 0.019565047405109802 0.002491353991230274 -0.0020253706323381049 -0.016567314222702308 -0.0012935791054098122 -0.018521261992620667 -0.011543302689010292 -0.0054215718584544968 -0.020572162162972543 0.002274511748082225 -0.00065294561332418662 -0.016624572549470494 0.013828537657895346 0.0026384089748851592 0.020932677920073212 0.0051719400120967011 -0.028290673949636941 -0.003037605701857975 -0.0049147935367646143 -0.012608389438044305 -0.0019982904993369253 0.0079971993619619881 0.0075199938084425334 0.019699777507746628 -0.0050469900446267601 0.013607960371900632 -0.0022698599124885369 -0.0097779131532210323
leaf_weight=7.4985659867525092 21.243176579475403 34.740165710449219 10.745681181550028 14.996208295226099 19.495363920927048 187.96582552790642 149.7163861989975 7.7493932992219916 319.70033395290375 12.247821837663649 9.494938477873804 12.248291730880736 16.241449132561684 83.982968181371689 358.18587449193001 28.996977120637894 92.485726445913315 8.4985761642456037 8.2490366548299807 10.745997235178949 7.4981705248355865 7.4983582645654705 24.739346131682396 15.743644893169401 12.747396528720854 9.7487483918666822 23.991529121994972 24.495769917964935 10.241729050874708 43.74160473048687 15.996887221932409 44.482103586196899 13.248642578721045 14.244969516992567 21.245904698967937 11.997439533472059 9.9977717548608762 8.2483861893415433 8.7458878159522992 7.7489816844463366
leaf_count=30 85 139 43 60 78 752 599 31 1279 49 38 49 65 336 1433 116 370 34 33 43 30 30 99 63 51 39 96 98 41 175 64 178 53 57 85 48 40 33 35 31
internal_value=0 0.00110554 0.00364269 0.00292863 0.00162152 -0.00157444 0.00582413 -0.000227728 0.000627426 -0.00511502 0.000427356 0.00409399 0.000863184 0.00544387 0.00017597 -0.00443701 -0.00574291 -0.00293042 -0.00685222 -0.00846572 -0.00114254 0.00586581 -0.00262769 -0.00716347 0.00507993 -0.00892498 0.00924893 0.0132762 -0.0115216 -0.0075057 0.00266793 -0.0160343 -0.0121964 0.016404 0.0076363 0.0135333 0.0034048 0.00678719 -0.0103035 -0.0161488
internal_weight=1751.63 1441.23 496.389 471.398 391.918 222.706 169.212 944.837 785.609 310.406 73.9806 55.7398 778.111 100.224 677.886 159.228 143.23 100.984 236.426 183.685 52.7407 27.7448 63.9764 40.483 23.4934 24.9959 79.4804 48.4873 119.709 64.9848 30.9931 54.7238 42.2456 24.9907 43.492 19.4958 31.2437 15.9978 18.2408 15.2472
internal_count=7008 5766 1986 1886 1568 891 677 3780 3143 1242 296 223 3113 401 2712 637 573 404 946 735 211 111 256 162 94 100 318 194 479 260 124 219 169 100 174 78 125 64 73 61
is_linear=0
shrinkage=0.02


Tree=7
num_leaves=45
num_cat=0
split_feature=11 27 27 13 13 27 0 0 9 30 17 33 33 22 10 10 36 35 10 30 18 11 13 11 0 22 12 10 27 0 43 13 32 43 17 26 30 35 30 13 35 14 27 30
split_gain=23.6593 15.4999 10.4053 9.54966 9.1432 8.72851 8.5455 9.25465 8.31732 8.18948 9.32454 8.15313 8.3634 7.84823 7.53539 9.43943 9.11096 7.24951 7.52854 9.73801 7.11439 6.97832 6.89277 7.9252 9.35585 6.4442 7.81325 6.29284 5.37441 5.26711 7.48823 5.63574 5.14528 7.01125 6.2028 5.52071 6.01139 4.65864 4.12529 4.09623 3.94589 3.94097 3.589 4.4262
threshold=0.62449227536424068 0.2185584828257561 0.063866648823022856 -0.27394682160176681 -0.72820179321215717 0.6514871120452882 -0.0026090456065893659 -0.00014994512672650281 -0.0048592061796847155 2.3043848173593777 2.4204552842703522 -0.022753869194871677 -0.032850215421782243 0.31248962510342987 -0.0019585497777317991 -0.0093829760626089592 0.0047424747254955968 0.179081343829148 -0.025157305174745178 -1.5357423561615675 0.0020176815714105416 0.89136500537111485 1.0746253212171386 0.77526919846318854 0.0072554944188666379 0.77091994029150457 0.0026117310626432304 -0.021548596264839789 0.1473059877753258 -0.0015698434683527049 -0.0026841826216261184 -1.2244278632904424 0.10644226331187466 -0.039651245300971187 1.4112023161989196 0.0052532418078907349 0.013968981289436525 0.67952506345202257 1.2613223009457368 0.74766308826164118 0.60739371065611059 -0.00962957629456823 0.37482978403568273 2.647065298179005
decision_type=2 2 2 2 2 2 2 2 2 2 2 2 2 2 2 2 2 2 2 2 2 2 2 2 2 2 2 2 2 2 2 2 2 2 2 2 2 2 2 2 2 2 2 2
left_child=1 4 20 5 8 14 -7 -8 27 10 13 12 -11 -4 15 -3 -16 -5 -19 -20 22 -15 23 38 -25 26 -24 -1 -29 30 -10 -31 33 -6 -35 41 -37 39 -2 -12 -22 -34 43 -13
right_child=2 3 9 17 32 6 7 -9 29 11 37 42 -14 21 16 -17 -18 18 19 -21 40 -23 25 24 -26 -27 -28 28 -30 31 -32 -33 35 34 -36 36 -38 -39 -40 -41 -42 -43 -44 -45
leaf_value=0.017644346912648719 0.0046098795980586528 0.00055852257059221518 -0.022999958602251042 0.013901624959961998 -0.012755549540466577 -0.020814359507484937 0.011300526488454046 -0.012134721646821705 0.0063953371995117414 -0.011906591529179014 0.0036793584913776796 -0.019497668909725593 0.013902285636023574 -0.0023545312276706701 0.0090969346313946424 0.011640630482382648 -0.0041682303748980087 -0.019677544416881843 0.0043738589763897421 -0.0044487071337245112 0.00087475564929804584 -0.0086911313997690125 0.006040076757840942 0.017948992390633509 -0.0041882611761357488 0.0078115283183875905 -0.016642741102369418 -0.004693022372695972 0.010932586765087755 -0.0010157034523086421 0.023643056360781102 0.015074069588203873 -0.00036960109211415777 0.0052931003639479978 -0.012092075491402511 0.010336630111881627 -0.0043180392426043204 -0.0036474289899625562 -0.0093961737364989494 0.02303165805625166 -0.01622858685723853 -0.014335369337341017 -0.024914650124719832 -0.0027751188456588637
leaf_weight=8.2473806738853437 28.493842050433159 52.240105360746384 7.4988030940294257 9.2469667345285398 8.4979562610387784 10.499284282326697 12.998964428901672 11.999299108982086 17.243002578616142 9.9934900254011172 9.4966280311346107 11.995364502072336 8.245202034711836 386.1670578867197 28.495248034596443 75.484242141246796 68.490853667259216 9.7486195862293226 62.490486949682236 234.21582977473736 9.2477052360773104 84.709233194589615 8.4988994002342242 32.988058507442474 9.246225178241728 13.242947220802305 16.492986783385277 31.991642519831657 10.996393397450445 17.743051275610924 28.730361774563789 15.494333684444426 15.49622982740402 252.41950778663158 7.4960890859365454 20.994565293192863 21.744557842612267 8.4968459159135801 10.747468948364256 8.4972700774669629 10.994366973638533 16.746401503682137 12.9923248142004 13.741733148694037
leaf_count=33 114 209 30 37 34 42 52 48 69 40 38 48 33 1545 114 302 274 39 250 937 37 339 34 132 37 53 66 128 44 71 115 62 62 1010 30 84 87 34 43 34 44 67 52 55
internal_value=0 0.00190041 -0.00284012 -0.000301502 0.00457584 0.00252605 -0.00654558 0 0.00907346 -0.00405542 -0.00322469 -0.0112004 -1.90011e-05 -0.00387166 0.00399061 0.00716306 -0.00019735 -0.00263896 -0.00318816 -0.00257538 0.00201865 -0.00351471 0.00389545 0.00716235 0.0130715 -0.00302022 -0.00891652 0.00267032 -0.000492836 0.0131053 0.0174905 0.00664769 0.00284013 0.00413301 0.00473962 -0.00175516 0.00290673 0.00810162 0.00058601 0.0136548 -0.00864734 -0.00789643 -0.0162827 -0.0110816
internal_weight=1751.54 1049.75 701.786 575.91 473.841 260.208 35.4975 24.9983 130.446 561.834 504.866 56.9681 18.2387 478.375 224.71 127.724 96.9861 315.702 306.455 296.706 139.953 470.876 119.71 81.4756 42.2343 38.2348 24.9919 51.2354 42.988 79.2107 45.9734 33.2374 343.395 268.414 259.916 74.9818 42.7391 26.4907 39.2413 17.9939 20.2421 32.2426 38.7294 25.7371
internal_count=7008 4200 2808 2304 1896 1041 142 100 522 2248 2020 228 73 1914 899 511 388 1263 1226 1187 560 1884 479 326 169 153 100 205 172 317 184 133 1374 1074 1040 300 171 106 157 72 81 129 155 103
is_linear=0
shrinkage=0.02


end of trees

feature_importances:
Column_34=18
Column_11=14
Column_25=14
Column_43=13
Column_27=12
Column_33=12
Column_37=12
Column_2=11
Column_19=11
Column_10=10
Column_0=9
Column_9=9
Column_21=9
Column_42=9
Column_47=9
Column_13=8
Column_5=7
Column_15=7
Column_17=7
Column_30=7
Column_32=7
Column_35=7
Column_41=7
Column_3=6
Column_26=6
Column_36=6
Column_38=6
Column_45=6
Column_49=6
Column_44=5
Column_46=5
Column_48=5
Column_1=4
Column_24=4
Column_16=3
Column_31=3
Column_4=2
Column_8=2
Column_12=2
Column_14=2
Column_18=2
Column_22=2
Column_39=2
Column_40=2
Column_6=1
Column_20=1
Column_23=1
Column_28=1

parameters:
[boosting: gbdt]
[objective: binary]
[metric: auc]
[tree_learner: serial]
[device_type: cpu]
[data_sample_strategy: bagging]
[data: ]
[valid: ]
[num_iterations: 500]
[learning_rate: 0.02]
[num_leaves: 63]
[num_threads: 14]
[seed: 42]
[deterministic: 0]
[force_col_wise: 0]
[force_row_wise: 0]
[histogram_pool_size: -1]
[max_depth: 6]
[min_data_in_leaf: 30]
[min_sum_hessian_in_leaf: 0.001]
[bagging_fraction: 0.7]
[pos_bagging_fraction: 1]
[neg_bagging_fraction: 1]
[bagging_freq: 0]
[bagging_seed: 400]
[bagging_by_query: 0]
[feature_fraction: 0.5]
[feature_fraction_bynode: 1]
[feature_fraction_seed: 30056]
[extra_trees: 0]
[extra_seed: 12879]
[early_stopping_round: 0]
[early_stopping_min_delta: 0]
[first_metric_only: 0]
[max_delta_step: 0]
[lambda_l1: 0.1]
[lambda_l2: 1]
[linear_lambda: 0]
[min_gain_to_split: 0]
[drop_rate: 0.1]
[max_drop: 50]
[skip_drop: 0.5]
[xgboost_dart_mode: 0]
[uniform_drop: 0]
[drop_seed: 17869]
[top_rate: 0.2]
[other_rate: 0.1]
[min_data_per_group: 100]
[max_cat_threshold: 32]
[cat_l2: 10]
[cat_smooth: 10]
[max_cat_to_onehot: 4]
[top_k: 20]
[monotone_constraints: ]
[monotone_constraints_method: basic]
[monotone_penalty: 0]
[feature_contri: ]
[forcedsplits_filename: ]
[refit_decay_rate: 0.9]
[cegb_tradeoff: 1]
[cegb_penalty_split: 0]
[cegb_penalty_feature_lazy: ]
[cegb_penalty_feature_coupled: ]
[path_smooth: 0]
[interaction_constraints: ]
[verbosity: -1]
[saved_feature_importance_type: 0]
[use_quantized_grad: 0]
[num_grad_quant_bins: 4]
[quant_train_renew_leaf: 0]
[stochastic_rounding: 1]
[linear_tree: 0]
[max_bin: 255]
[max_bin_by_feature: ]
[min_data_in_bin: 3]
[bin_construct_sample_cnt: 200000]
[data_random_seed: 175]
[is_enable_sparse: 1]
[enable_bundle: 1]
[use_missing: 1]
[zero_as_missing: 0]
[feature_pre_filter: 1]
[pre_partition: 0]
[two_round: 0]
[header: 0]
[label_column: ]
[weight_column: ]
[group_column: ]
[ignore_column: ]
[categorical_feature: ]
[forcedbins_filename: ]
[precise_float_parser: 0]
[parser_config_file: ]
[objective_seed: 16083]
[num_class: 1]
[is_unbalance: 0]
[scale_pos_weight: 1]
[sigmoid: 1]
[boost_from_average: 1]
[reg_sqrt: 0]
[alpha: 0.9]
[fair_c: 1]
[poisson_max_delta_step: 0.7]
[tweedie_variance_power: 1.5]
[lambdarank_truncation_level: 30]
[lambdarank_norm: 1]
[label_gain: ]
[lambdarank_position_bias_regularization: 0]
[eval_at: ]
[multi_error_top_k: 1]
[auc_mu_weights: ]
[num_machines: 1]
[local_listen_port: 12400]
[time_out: 120]
[machine_list_filename: ]
[machines: ]
[gpu_platform_id: -1]
[gpu_device_id: -1]
[gpu_use_dp: 0]
[num_gpu: 1]

end of parameters

pandas_categorical:null
